0.56112087	-0.050383314	-0.22979242	1.3564323	0.08121262	1.0202574	0.11995028	1.1700112	0.012379373	-0.14578906	0.4457191	0.30522203	-0.63465667	-1.301642	0.13622089	0.99963516
0.28709012	-0.4232345	0.50778115	0.2823301	-0.15833886	0.100153886	-0.15834741	0.7298804	-0.20898275	0.26633143	0.2904825	-0.17852671	-0.36290494	-0.0414347	-0.17435452	1.5587401
-0.265377	-0.8725469	0.22533269	0.08088406	-0.11277862	0.1282294	-0.19762771	0.61413383	0.36075842	0.24774972	-0.3166372	-0.041470047	-0.4913965	-0.4568715	-0.08498538	0.11258223
0.026393462	0.32911062	-0.2546668	0.45083708	0.22649805	0.08362773	-0.07188138	0.15940963	0.030621478	-0.15423574	0.221336	0.25092074	-0.09337052	0.056126196	0.097514905	0.12922528
-0.34292743	-0.22745505	0.11691451	0.4169975	0.4765582	-0.28752422	-0.32503155	0.2487032	0.2698389	-0.3494217	0.0016283069	0.6218886	-0.3079857	0.0821631	-0.38807252	-0.40765744
-0.47482008	-1.1714756	-0.3523872	-1.1506159	-1.1054281	0.9170772	0.058567513	0.25158748	0.73319346	0.9283015	-1.014777	-0.99560845	-0.38823292	-1.9276801	0.7108199	-0.7615312
0.11085905	-0.46403793	0.41114074	0.083248	-0.033603985	-0.19234529	0.09089165	0.23231454	-0.075866565	-0.16431086	0.033144385	0.2152131	-0.13150986	-0.20940982	-0.28357872	0.37379006
0.2059602	0.3488853	-0.47056562	0.17867547	0.09909599	0.12993328	0.5330086	-0.5269215	0.0062464913	-0.47047645	0.08095023	0.45742598	0.34730104	-0.68548554	0.06830165	-0.9784149
0.15045713	0.13026908	-0.20258921	-0.048312895	-0.2632899	0.34352842	0.29462707	-0.21979384	-0.044811107	-0.0071198596	0.020970311	-0.16828142	0.17501292	-0.39645547	0.20005839	-0.15739404
0.82754695	0.341814	-0.22141822	-0.52700377	-1.2192824	0.86632	0.8259384	-0.21378846	-0.50864255	0.33791927	0.14813977	-0.82069165	0.4277865	-0.97028303	0.66186213	1.1049916
0.16046172	-0.19461612	0.05927674	-0.025441563	-0.31963462	0.32023543	0.08545402	0.31144294	-0.09605075	0.23958132	-0.037121203	-0.2727979	-0.18376713	-0.35068887	0.10358274	0.6072678
0.2666494	-0.06154694	0.3338155	0.061903544	-0.121739835	-0.1646331	0.17970473	-0.0141823655	-0.20125267	-0.28856894	0.20996043	0.18408878	0.18065268	-0.19079496	-0.25881863	0.17149748
0.17531882	1.153939	-0.7463055	0.8173468	0.66734535	-0.1509169	0.057691794	-0.4432961	-0.15977462	-0.9531464	0.6547123	0.888153	0.3058355	0.37085453	-0.059743803	-0.8802872
0.19084996	0.3247135	-0.0041068913	0.44309425	0.19294634	-0.009490714	-0.16634765	0.2741885	-0.20255882	-0.09152572	0.45147774	0.16623847	-0.12791401	0.23688573	-0.019675272	0.72471267
-0.31145146	-0.02000729	0.50518346	0.8484475	0.8337621	-0.7811689	-0.78644055	0.7432614	-0.02290222	-0.50314397	0.43247575	0.70480525	-0.6270468	0.7964414	-0.74551517	0.6652249
0.068166554	0.18606822	0.2957539	0.5618078	0.4746644	-0.36047816	-0.27741006	0.2750221	-0.16627863	-0.4030133	0.47500274	0.51415324	-0.16608305	0.3514317	-0.4250183	0.40550196
-0.8905144	-0.88118684	-0.9289812	-0.4566971	-0.3159823	0.92337525	-0.6758226	0.8503491	1.0400358	1.0595117	-1.0826817	-0.7541301	-0.97362196	-0.802918	0.8266584	-0.9559063
0.33355317	1.0572416	-0.4064239	0.4366512	0.08191934	0.2088621	-0.037117414	-0.11844129	-0.2659517	-0.19538118	0.5931326	0.064506516	0.061015915	0.27421033	0.20427272	0.47439516
-0.27795434	-0.06223067	-0.016220886	0.32541025	0.29572487	-0.06747921	-0.4650707	0.5038061	0.18642268	0.17020133	-0.027772862	0.10102648	-0.4442481	0.26486737	-0.05791576	0.2459253
0.060214773	0.122528665	-0.012008062	0.085285544	0.020855524	-0.008009607	-0.04622137	0.013024556	-0.037165258	-0.16193171	0.1738929	0.10149139	0.036519766	-0.058347534	0.009050806	0.08210799
-0.21571797	0.16683389	-0.34297043	0.42359686	0.36772496	0.07419918	-0.39597085	0.2741339	0.27595133	0.11838343	0.0042492934	0.085484736	-0.3079448	0.26547533	0.14148355	0.060745653
-0.39613882	-1.0412941	0.30505213	-0.53754705	-0.23334675	-0.09496378	-0.15420963	0.40807712	0.47462317	0.14222461	-0.73743725	-0.03919559	-0.4502655	-1.0417181	-0.23123814	-0.68189424
0.20875612	-0.21303397	0.106084034	-0.27221957	-0.5019796	0.2460479	0.32483065	0.085625045	-0.09060936	0.19006029	-0.006074073	-0.34266663	0.060457833	-0.47371206	0.1394791	0.38582006
0.61157393	-0.32510576	0.55133957	-0.06186179	-0.26441318	-0.098207526	0.6013774	-0.0055075884	-0.5941832	-0.516148	0.57307595	0.040254835	0.39536425	-0.36382794	-0.38636237	0.50811774
0.14537862	-0.1675855	0.3760676	0.034207955	-0.059010025	-0.18151844	0.12496864	-0.020691788	-0.17094843	-0.25615504	0.2213562	0.26493	0.065847136	-0.16006754	-0.28670877	0.18435034
-0.20799531	0.15444332	0.094820715	0.45210013	0.4230378	-0.2481066	-0.43268815	0.29064563	0.16152151	-0.17910767	0.15995017	0.34866416	-0.3323472	0.36902374	-0.2715266	0.1301928
-0.08517838	0.13440949	-0.41116786	0.077166006	0.046937212	0.24290445	0.049770635	-0.016446725	0.2133027	0.10629368	-0.13293669	0.002952053	-0.025270354	-0.22556016	0.292376	-0.45411974
-0.13567595	-0.16343522	0.043819442	0.2722118	0.22521713	-0.14880082	-0.16473813	0.09465105	0.10793332	-0.1889477	0.024528548	0.37302262	-0.14409542	-0.060297463	-0.2588567	-0.31757516
1.3518112	-1.88339	2.0960371	-1.2388141	-1.6361701	-1.2473452	1.4886177	-0.03431512	-1.4834567	-1.405876	1.3259729	0.9202349	0.8157049	-1.4740028	-1.639445	1.8940207
-0.07404837	-0.2395171	0.30954373	0.24190855	0.25047264	-0.29834133	-0.22853622	0.39131302	0.06111151	-0.09720991	0.074084006	0.28267863	-0.2935948	0.19693168	-0.28060523	0.36787766
0.1846022	0.34395194	-0.25860548	0.04848896	-0.080590665	0.17842409	0.20757115	-0.30286774	-0.04422804	-0.23646663	0.10214954	0.11465989	0.22150329	-0.16089419	0.1275174	-0.44154516
1.2031475	-0.65646166	1.4089615	-0.6598458	-1.2571787	-0.9197193	1.2369422	-0.3524021	-1.2954603	-1.28728	0.98785925	0.80719465	0.764806	-1.1852031	-1.1755861	1.2241939
0.2334818	1.8664579	-0.76456547	0.87793183	0.6565229	-0.10063481	-0.12803419	-0.41884926	-0.510973	-1.2274448	1.4035646	0.6989478	0.22412248	0.6835314	0.07475582	-0.4000299
0.06082162	0.076769985	-0.19621623	0.0316728	-0.010491724	0.055794287	0.25926328	-0.1341053	0.08876215	-0.09502114	0.022015467	0.034779716	0.08616528	-0.27829793	0.069089554	-0.23632702
0.22263797	0.324476	0.05376771	0.28020677	0.05998999	-0.12698889	0.10690031	-0.25289503	-0.25604716	-0.5110031	0.41161492	0.36683944	0.23388802	0.0009962599	-0.16266885	-0.14739068
-0.11010965	-0.34722927	-0.24962059	-0.37199292	-0.5637039	0.492264	0.068478696	0.18324164	0.32567617	0.4916147	-0.46219093	-0.48080444	-0.16370568	-0.5957917	0.42716274	-0.027632706
-1.6117816	-1.6041913	-0.78089297	-0.07197758	0.7685559	0.3792845	-1.8215606	1.6580273	1.5083901	1.2886175	-1.470078	-0.2692005	-1.6327946	-0.57929593	0.4013069	-1.4386386
-0.052425474	0.25138286	-0.1653001	0.33816227	0.24129264	0.057602502	-0.08044352	0.057113666	0.026257928	-0.14546892	0.15347536	0.18014188	-0.026120055	0.065427534	0.032474436	-0.08655737
0.10069521	-0.5273602	0.68347526	-0.052640032	-0.026377944	-0.52218866	0.16182283	-0.0034513345	-0.18395746	-0.509681	0.08662913	0.55711985	0.07066583	-0.2778793	-0.6799342	0.007556409
-0.25470516	0.53750694	-0.28765374	0.6178831	0.6258191	-0.103419214	-0.56285286	0.359317	0.13951367	-0.15753429	0.35817114	0.362416	-0.45701414	0.55783165	-0.0809479	0.27278307
0.023721948	0.30106467	-0.10679934	0.41502333	0.28562084	-0.053735357	-0.14411053	0.037188787	-0.06280237	-0.2428373	0.26228422	0.23006621	-0.07434175	0.19751714	-0.09284418	0.034896243
-0.0061871563	-0.26435903	0.3042556	0.27308336	0.260541	-0.25516164	-0.24712653	0.29363683	0.042936444	-0.14204027	0.023775365	0.19208762	-0.26927927	0.05439141	-0.2948204	0.27148116
-0.22903557	0.044144373	0.16276756	0.5767979	0.5394665	-0.27410805	-0.45671934	0.41282958	0.037564874	-0.19704002	0.20831922	0.39301166	-0.35257024	0.49775603	-0.3276968	0.32010192
-0.026873894	0.35055098	-0.25981706	0.32358456	0.21581455	0.16096073	-0.20723425	0.25574312	0.07828661	0.11093056	0.14082095	-0.037194733	-0.2544988	0.3029973	0.17976683	0.45859224
-0.0016003831	0.17186934	0.019922132	0.40576604	0.3944413	-0.18108004	-0.19549733	0.23756519	-0.03439574	-0.20344284	0.31313607	0.25753242	-0.13226618	0.27904084	-0.15943266	0.20793043
0.2620628	0.77429533	-0.54882246	0.42909244	0.18546006	0.14208774	0.29204658	-0.3727156	-0.20064923	-0.5134365	0.39572883	0.3419324	0.34276366	0.07137529	0.21834733	-0.49851424
-0.05749922	0.4371744	-0.12975541	0.62170595	0.52418125	-0.18044503	-0.3680195	0.2026822	-0.018191382	-0.21803133	0.38268593	0.39024317	-0.18318008	0.4307082	-0.19605045	0.2409198
0.2549949	0.54175806	-1.0484998	-0.6464661	-1.1848844	1.1879237	0.39465448	-0.0444879	0.27109897	0.90769935	-0.45217696	-1.0658387	-0.051689003	-1.1162995	1.1381854	0.27231672
0.44337022	0.5301711	-0.7555016	-0.8600329	-1.4145482	1.0584149	0.7592801	-0.20716232	0.06246642	0.8115571	-0.37668642	-1.0729198	0.22315916	-1.0249656	0.9937876	0.60186756
0.038991384	0.080866076	-0.59734434	-0.51376885	-0.70141894	0.7358032	0.20691723	-0.023399211	0.26455823	0.6776177	-0.3567549	-0.8049212	0.03625877	-0.6145882	0.7055604	0.03235513
-0.53207964	-0.27734998	-0.36649996	0.20956767	0.39806315	0.03311315	-0.4570606	0.23447041	0.50931144	0.1434257	-0.48337796	0.15584026	-0.40746397	-0.039240822	0.03907785	-0.92826635
-0.25843424	-0.430936	0.16458201	0.2533957	0.3612472	-0.37226838	-0.32960692	0.30415642	0.17913581	-0.21033457	-0.080603264	0.50180626	-0.28054917	0.163	-0.40669397	-0.24146628
-0.14329545	0.6249975	-0.10830426	0.64670706	0.58960027	-0.2710057	-0.44160417	0.26268905	-0.03672938	-0.3682205	0.44842193	0.45774674	-0.24547301	0.52846485	-0.17419532	0.26508018
0.11304134	0.253529	0.29804724	0.54307085	0.37921146	-0.47898397	-0.17692716	0.10259184	-0.28245056	-0.63038737	0.6041321	0.56567585	0.0036182005	0.42313474	-0.5120134	0.41854087
-1.3032235	-1.396179	-0.426633	-0.22867787	0.6445478	0.12938659	-1.3408883	1.15265	1.1629624	0.9156076	-1.1351923	-0.17468335	-1.2456825	-0.6613927	0.11204056	-1.2802483
-0.053425457	0.31112266	-0.39463934	0.20213887	0.11964359	0.18153685	-0.09878021	0.12804593	0.017729376	0.06400956	0.15416119	-0.004002377	-0.15197606	0.07615538	0.22706364	0.1362394
-0.21253026	-0.22606651	-0.20644124	-0.20759165	-0.12038598	0.21398073	-0.122755215	0.18982355	0.40356162	0.2977238	-0.38503402	-0.23420392	-0.19106942	-0.26449895	0.22061501	-0.29825735
0.64982474	0.24115913	-0.076152176	-0.28854042	-0.8773212	0.54703945	0.6099376	-0.09713342	-0.40815628	0.23463057	0.22203691	-0.5043317	0.3009573	-0.60515356	0.3782803	0.89525074
-1.3571477	-1.4151574	-0.8288325	-0.21693246	0.41661227	0.5329299	-1.3606089	1.3835828	1.265777	1.1690555	-1.2948748	-0.50222653	-1.3688495	-0.65788203	0.5663579	-1.1858852
-0.10187294	0.3448192	-0.6069151	0.0230865	-0.10330663	0.41061807	-0.04069431	0.0005156048	0.2541803	0.2732654	-0.18144672	-0.2357925	-0.022490734	-0.0948773	0.41506207	-0.22894621
-0.78110015	0.34088326	0.5073871	1.06249	1.1312759	-1.0600532	-1.1352849	1.0058726	0.2264841	-0.6859014	0.61339265	1.0089668	-0.9408287	1.0928528	-1.0158304	0.7345616
1.1595925	-1.087363	1.5237845	-1.1821221	-1.5572875	-0.65614265	1.3409309	-0.403195	-1.1093556	-0.80703056	0.67904335	0.14110683	0.83476555	-1.3900075	-1.0599309	1.1789888
0.48300236	1.696743	-1.3329601	0.56570005	0.15051478	0.4057821	0.4313402	-0.72895527	-0.5719031	-0.7373586	0.8704172	0.26288012	0.6133733	0.17348477	0.6458716	-0.9303222
-0.011644975	-0.11987154	0.6390679	0.6061851	0.61613446	-0.72809356	-0.5089698	0.55646515	-0.25137633	-0.56430906	0.68177456	0.689248	-0.37946883	0.63465035	-0.7703757	0.88935274
-0.43444163	-0.17582235	0.266294	0.4492359	0.61584675	-0.38705304	-0.5808692	0.51025224	0.17767248	-0.17906095	0.054501712	0.42244	-0.5028619	0.47798833	-0.41635656	0.15246108
-1.1346748	-0.05243186	-0.077336416	0.83782923	1.1235478	-0.69992906	-1.4296627	1.0893674	0.86644083	-0.02743687	-0.076729245	0.67816275	-1.2591307	0.9093287	-0.5609212	0.024823437
0.18462272	0.29411355	0.018729499	0.193748	0.03653227	-0.038342383	0.110029876	-0.13547578	-0.14436787	-0.3049875	0.31219366	0.2542824	0.14707488	0.030547658	-0.04634095	0.089097716
0.45166656	1.2021877	-1.64467	-0.8367007	-1.5009258	1.580709	0.87956554	-0.49195847	0.20019388	1.0151881	-0.34881645	-1.3354902	0.39347765	-1.0440702	1.6484057	0.32887974
0.5445762	-0.32368225	0.5195515	-0.5257553	-0.88767636	-0.021546872	0.7985227	-0.2117266	-0.43235964	-0.18281604	0.2250867	-0.048374385	0.36584318	-1.1568989	-0.2101696	0.5431457
-0.09157233	0.045707256	-0.45157087	0.014282994	-0.076034114	0.41218644	-0.1514431	0.257263	0.27692887	0.43391833	-0.17191347	-0.32462078	-0.30714533	-0.1645067	0.4387768	0.15225455
-0.59504056	-0.42141366	-0.50212437	0.13902205	0.20932738	0.23098503	-0.4778149	0.4372929	0.5625917	0.41346732	-0.4889194	-0.07487627	-0.49050745	-0.05208994	0.20969172	-0.59451216
0.13043815	0.37226096	0.4968243	0.64184904	0.54409856	-0.66420096	-0.287672	0.19159158	-0.4365168	-0.89943	0.81187385	0.6968113	-0.14646	0.46958646	-0.69213915	0.55336714
0.056178443	0.26690778	-0.29606894	0.098447174	-0.0661443	0.28129762	0.036729716	-0.029516846	-0.010349883	0.10370073	0.11070857	-0.1709126	-0.019117124	-0.028809285	0.23240046	0.25258836
0.41263953	0.21925579	0.18490185	0.18636754	0.008146048	-0.05990026	0.24353556	-0.22011231	-0.4273111	-0.44699335	0.51346016	0.27199352	0.3042915	-0.039730527	-0.18399192	0.14414088
-0.37874052	-0.91010314	0.19794847	-0.36284068	-0.21248926	0.04891568	-0.23062229	0.40158275	0.35550547	0.25151336	-0.4723334	-0.115381025	-0.32889178	-0.4916991	-0.1296529	-0.3145399
0.07093798	0.6094505	-0.3479611	0.29433107	0.19424309	0.17534956	-0.1116381	0.057235625	-0.042210847	0.043083355	0.2435109	-0.03672608	-0.07718865	0.18809965	0.16306782	0.23054422
0.12795733	0.07286829	-0.32062545	-0.21330643	-0.31928042	0.34299707	0.22409242	-0.17102322	-0.00018877449	0.06576226	-0.071950644	-0.23964593	0.12368839	-0.42348653	0.29426232	-0.33093253
0.07917503	0.5203084	-0.7976533	0.14326824	0.25421295	0.2040621	0.347906	-0.47705963	-0.021638542	-0.384713	0.047475602	0.31748506	0.33226356	-0.32310745	0.27068958	-1.247707
-1.2480124	-1.4143001	-0.118588924	0.4696411	0.97790194	-0.03555422	-1.4876363	1.4368728	1.0846668	0.76798666	-1.0926627	0.31275198	-1.4265368	-0.048414618	-0.20259474	-1.0062097
-0.18744648	-0.015574084	0.30205333	0.5258244	0.58373684	-0.56089824	-0.42674223	0.37505907	0.036730304	-0.3960674	0.2993563	0.6056606	-0.29956222	0.43002975	-0.5042553	0.11629857
-0.09225015	0.082144424	0.6330253	0.72809106	0.7117858	-0.67092526	-0.51544225	0.47796816	-0.2839343	-0.52240115	0.59304416	0.7404224	-0.368678	0.66411257	-0.753559	0.90034837
-0.866572	-1.0055102	-0.5100275	-0.39021018	-0.04007213	0.53750676	-0.8483722	0.93457854	0.9523902	1.0255713	-1.0026462	-0.5383304	-0.97811073	-0.5217713	0.5097175	-0.6963756
-0.021219091	0.118391044	-0.5885551	-0.31976095	-0.5842289	0.7223019	-0.030788582	0.2771446	0.25042588	0.74542624	-0.40001145	-0.7846677	-0.17985499	-0.31644925	0.7535388	0.44499263
-0.19009604	0.03623912	-0.014444093	0.31968436	0.35981804	-0.15289856	-0.29878646	0.25252527	0.11791214	-0.046317484	0.051425304	0.16271842	-0.21236876	0.26893616	-0.18645783	0.1623187
0.19860801	0.34761056	-0.74142134	-0.43852323	-0.6538054	0.7491335	0.4362697	-0.29765266	0.16258268	0.3415954	-0.24966764	-0.6086767	0.21334867	-0.6454414	0.7228095	-0.33279595
-0.04775526	0.18817693	-0.45948854	-0.018856775	-0.12607369	0.4208081	0.0022741626	0.09135114	0.10889638	0.35283336	-0.062117126	-0.35988164	-0.11458203	-0.0972284	0.4074833	0.12680215
1.1868131	1.535274	-1.3104584	0.24410687	-0.43454835	0.5498231	1.4617952	-1.3093455	-1.2034588	-1.4177265	1.2928293	0.6196622	1.3183773	-0.94215214	0.671281	-1.3130789
-0.38132396	-0.96010315	0.70714194	0.26251993	0.49035326	-0.7197957	-0.58311546	0.6997297	0.20268928	-0.23110534	-0.21067616	0.629132	-0.5979167	0.16475518	-0.83588254	-0.09269589
0.1177899	0.766119	-0.39328519	0.43634588	0.25915372	0.03914872	0.12154995	-0.19140431	-0.252561	-0.28495085	0.43183887	0.18829553	0.11070349	0.21401645	0.1444636	-0.03927749
-0.061524846	-0.14094418	-0.5513159	-0.8126282	-0.8945686	0.9244522	0.28464168	0.10114048	0.33361024	0.8863679	-0.54688543	-0.94551575	-0.059687648	-0.8545687	0.7715355	0.14716467
0.15212074	0.37232044	-0.35081658	0.07659809	-0.05915496	0.11728203	0.22276494	-0.33654317	0.0060352026	-0.24675773	0.11420618	0.096643955	0.26129657	-0.21677315	0.164514	-0.598359
0.17441031	1.5082172	-0.7336883	0.8440156	0.7637531	-0.2831217	-0.25086588	-0.17696117	-0.39991346	-1.119599	1.228578	0.7486882	0.10053451	0.62509304	-0.040855817	-0.15647791
0.0039126035	0.53474134	-0.41278812	0.2668204	0.20417228	0.13619311	-0.072544694	-0.113255605	0.057346705	-0.2049883	0.14565794	0.1594221	0.021152515	0.13617803	0.1311613	-0.27132598
1.2338037	-0.16326842	1.0894644	-0.74020696	-1.2087984	-0.5332675	1.375373	-0.75723326	-1.2723031	-1.1957171	1.1234336	0.5115212	1.1122597	-1.0224242	-0.78778523	0.8421911
-0.12204375	-0.25267842	-0.19923466	-0.13565372	-0.21369593	0.32521558	-0.07346825	0.29041007	0.23170783	0.31081864	-0.28526586	-0.24168622	-0.27375308	-0.26775545	0.18154296	0.060236227
-0.62738436	-1.0610847	0.293677	0.057090677	0.33672538	-0.1528477	-0.6590496	0.8161111	0.5498855	0.3798354	-0.6246557	0.09736814	-0.7027102	-0.28643507	-0.32439595	-0.31897274
-0.031182295	0.18096775	0.100030206	0.52006316	0.4336397	-0.27354184	-0.18118525	0.24117969	-0.063835785	-0.37401658	0.27298656	0.366265	-0.12635042	0.35343632	-0.25884923	0.2482655
0.25473273	0.14831768	0.21220866	0.17416145	-0.0017623083	-0.12524858	0.10041984	0.121463284	-0.25853246	-0.21505794	0.28428197	0.14289981	0.004664168	0.049506303	-0.14607304	0.5429132
-0.18201807	-0.082462244	-0.15475386	0.13399251	0.20274925	0.07984674	-0.18339208	0.18743207	0.20930107	0.1103142	-0.13093957	0.104524046	-0.20164414	-0.08470413	-0.010033464	-0.31807718
-1.0387096	-1.1943687	-0.40834185	-0.35884857	0.16289324	0.30749846	-0.9113833	1.0101068	1.029673	0.9846623	-1.1336706	-0.46185777	-1.0963464	-0.35027215	0.34666198	-0.9110189
-0.36451817	-0.13858248	0.51825976	0.5430321	0.7114811	-0.7935732	-0.6874922	0.7217439	-0.031023074	-0.43310297	0.3220525	0.64175326	-0.5341533	0.65054697	-0.71993786	0.5553249
-0.012592254	0.3625159	-0.39023796	0.009078313	-0.110340595	0.2756661	0.020559758	-0.040151086	0.006966177	0.1395304	0.026938366	-0.17147763	-0.0011097037	-0.08399414	0.35145882	0.10920582
0.138382	0.20109199	-0.09048537	0.1859411	-0.036278423	0.1470167	-0.024057439	0.122510515	-0.09129101	-0.015604573	0.09646846	-0.055676863	0.011778069	0.030265069	0.09063214	0.2919072
0.03310829	0.18813951	0.046918206	0.31926534	0.20789465	-0.1498416	-0.10468646	0.068814225	-0.055018913	-0.25728676	0.23927225	0.30966386	-0.030398805	0.10921821	-0.18977673	0.02381587
0.5823267	0.8236378	-0.9148371	-0.41749343	-1.4447592	1.1038481	0.5215442	0.0705046	0.032187834	0.7715476	-0.23973632	-1.0097778	-0.032557517	-1.0307248	1.0408381	1.1542622
0.023779746	-0.6287077	0.1351165	-0.624917	-1.1381136	0.43330437	-0.030093092	0.69856364	0.15061948	0.6554309	-0.48264226	-0.77088076	-0.5026594	-0.6541937	0.29675996	1.003357
1.1234589	1.621729	-1.0672833	0.68353385	-0.036954813	0.063596494	1.1899887	-1.0557542	-1.193709	-1.1689601	1.3452982	0.7438733	1.1446716	-0.3320608	0.28470638	-0.33397067
-0.14190061	-0.25027552	0.41416788	0.33327967	0.30771172	-0.38692042	-0.3722948	0.4907135	0.014305663	-0.10734804	0.10259748	0.29846358	-0.35192296	0.3527009	-0.44621122	0.32939935
0.18864468	0.78692335	-1.4957495	-0.7649901	-1.5574269	1.499876	0.37100372	0.28900015	0.50000566	1.399149	-0.65111077	-1.4077404	-0.25519568	-1.1374129	1.4781631	0.8690651
0.3862257	0.49347928	-0.3070799	0.3228623	0.02245213	0.045395438	0.5789923	-0.5235216	-0.3269073	-0.6425098	0.39379662	0.49661785	0.5292705	-0.5308094	0.015547605	-0.6181423
-0.4926115	0.118058816	0.0412087	0.5788996	0.67164254	-0.37683785	-0.76475435	0.6075425	0.21573934	-0.15729606	0.24408475	0.46323004	-0.6336497	0.5923618	-0.3497534	0.28864107
0.20672904	0.58913136	-0.7420058	0.0045916974	-0.3239307	0.5429941	0.30803955	-0.2537052	-0.008170367	0.15000626	0.10816092	-0.23645422	0.14236386	-0.35098505	0.5946236	-0.13661505
0.24112669	-0.46984565	0.3339198	-0.34227473	-0.59017545	0.015393211	0.31616077	0.053189214	-0.20395504	0.008035857	0.058602218	-0.14693013	0.17698345	-0.5668219	-0.14437889	0.39131463
-0.23910965	-0.06968839	-0.0909252	0.17098722	0.08308925	0.09934922	-0.4229224	0.5104075	0.24806336	0.37094054	-0.14778607	-0.17062941	-0.49844444	0.19888808	0.116862245	0.40612838
0.012665071	0.2975841	-0.69054693	-0.34532	-0.6951863	0.8555436	0.100182466	0.05221172	0.29408482	0.72317636	-0.30295858	-0.8059549	-0.15691224	-0.35179952	0.8647883	0.34970656
-1.0189819	-1.0825738	0.37478846	0.47834292	0.97470444	-0.73500454	-1.121295	1.0632966	0.8147501	0.12583527	-0.6970637	0.74570096	-1.0707968	0.46209887	-0.82988656	-0.7289474
-0.39675486	0.03867971	0.10211431	0.59733325	0.5776686	-0.4009296	-0.6715043	0.566939	0.2791304	-0.028804194	0.0566771	0.38584247	-0.55852103	0.55028564	-0.2792339	0.20368634
0.24974455	-0.038031895	0.083807126	-0.24255551	-0.395582	0.22634353	0.3219553	-0.10580431	-0.12175409	0.05579511	0.08735548	-0.20674092	0.11964089	-0.24767654	0.09830194	0.33649036
0.19760564	0.5137392	-0.7456432	-0.07703808	-0.2893068	0.55185777	0.49708575	-0.44695127	0.01911114	-0.027820183	0.035754465	-0.15343799	0.3405199	-0.61478275	0.56465703	-0.5174615
0.6936863	-0.24194026	0.6665331	-0.17387459	-0.52319217	-0.23443241	0.6163339	-0.22412801	-0.57300836	-0.3366714	0.54438657	0.08089323	0.4306843	-0.31550765	-0.39182037	0.80421245
-0.36120883	-0.22115587	-0.34046024	-0.23397347	-0.20660241	0.4206755	-0.21381627	0.5328735	0.42025262	0.6892308	-0.48721647	-0.5412429	-0.5596924	-0.19674315	0.4483149	0.46135792
-0.21072248	0.29381126	-0.8084122	0.16446874	0.09802171	0.34907833	-0.1109502	0.023455646	0.28975415	0.33379486	-0.21835609	-0.16754135	-0.17654349	-0.0014153398	0.48463923	-0.33133674
0.81499314	1.0554036	-0.972561	0.0921228	-0.3984622	0.47877377	1.014661	-0.9046843	-0.5984389	-0.5958859	0.65717494	0.085876144	0.8468008	-0.85028905	0.5443856	-0.6617448
-0.60663146	-0.36542135	-0.07938167	0.30938992	0.49289864	-0.17436625	-0.6652039	0.54790366	0.55015546	0.17856155	-0.326468	0.27263322	-0.60151273	0.24523133	-0.23755433	-0.3506419
-0.15321556	-0.032365505	-0.26028073	0.12031961	0.17404081	0.05363845	-0.036940515	0.041922815	0.24970081	-0.1115373	-0.19446233	0.20617841	-0.1312039	-0.1509567	0.03443387	-0.56812316
0.2708434	0.7192389	-0.8630304	-0.12009088	-0.34799233	0.7502677	0.34415892	-0.37070164	-0.015100952	0.17545466	0.057191055	-0.48154572	0.23399675	-0.39304367	0.794057	-0.29860762
1.156573	1.1523335	-0.43214476	0.3484645	-0.56198317	0.34028032	1.3990244	-1.1494306	-1.1545441	-1.2358912	1.2576766	0.6294451	1.1611556	-0.98237073	0.23913914	-0.3689444
0.57908994	0.23215477	-0.07355302	-0.25426504	-0.67659456	0.29019704	0.6835901	-0.28179893	-0.32346243	0.0068288334	0.2134485	-0.272054	0.38954905	-0.68821305	0.23219587	0.46649897
0.5223592	0.18748617	0.020220524	-0.56321853	-0.82601845	0.29917687	0.6414615	-0.33797535	-0.2888198	0.00017584844	0.07903568	-0.27868694	0.36227575	-0.7248394	0.23067336	0.21424854
0.12500316	-0.2019476	0.43398368	0.18469101	0.10331668	-0.29878774	-0.03818594	0.18121107	-0.122995995	-0.3070943	0.1925773	0.3520393	-0.029735062	0.10406053	-0.4695111	0.17095184
0.5577058	0.7272751	-0.73933953	-0.588815	-1.1665527	0.83405006	0.83725613	-0.5063771	-0.23392157	0.32825428	0.036721114	-0.67391145	0.4976886	-0.9352011	0.7606748	0.07745144
1.0720456	1.3773943	-1.2301298	0.5590392	-0.30493462	0.43479148	1.2545375	-1.0235094	-1.0652971	-1.0324979	1.1692382	0.6399356	1.052351	-0.82236826	0.5909194	-0.58998233
0.053004246	0.23597524	-0.4774604	0.30584675	0.2140383	0.01974041	0.22447695	-0.3215562	0.011548175	-0.4002034	0.007005385	0.4417892	0.23350999	-0.4488426	0.14118898	-0.9141742
-0.105557896	0.053105563	-0.66200334	-0.12215664	-0.38148135	0.6883124	-0.075468324	0.16910951	0.16378742	0.6969822	-0.22649178	-0.6276995	-0.23130164	-0.49924502	0.6817021	0.08662411
0.8102134	-0.22403578	0.61183524	-0.40428284	-0.7422745	-0.1259425	0.90254724	-0.35253063	-0.74976546	-0.41452768	0.5072037	-0.0056594857	0.6147167	-0.62241757	-0.3405303	0.7398507
0.009855476	-0.4416083	0.4261237	0.04300466	0.074462906	-0.23107354	-0.16434364	0.2748064	-0.049794205	-0.11359042	-0.025782289	0.12529685	-0.13609014	0.0031980874	-0.31342798	0.36333105
-0.09144121	0.07599549	-0.812309	-0.9329346	-0.99376684	1.0023181	0.15092835	-0.0036004668	0.51651335	0.92100435	-0.6968827	-1.065156	-0.16919905	-0.9372536	0.91568357	-0.16653633
-0.34819388	-0.22560541	-0.3049554	0.289758	0.40362695	-0.00572777	-0.22310711	0.23444396	0.36005858	0.057015095	-0.31136376	0.14925456	-0.34291536	-0.10932153	0.025207516	-0.6317013
0.31068513	0.42510355	0.14556827	0.3175389	0.17202382	-0.31754756	0.08452417	-0.17832664	-0.44194236	-0.689409	0.5999203	0.5002108	0.17125663	0.16831303	-0.33407754	0.05901024
0.08484934	0.055642422	-0.20742364	-0.10797858	-0.20605204	0.2003611	0.22044933	-0.17761116	-0.02161307	-0.05390141	-0.044793695	-0.02665113	0.12940423	-0.36837387	0.10230501	-0.45044437
-0.393566	-0.0055089043	0.14369367	0.5421765	0.682382	-0.43483734	-0.6747899	0.64172345	0.25543123	-0.10567481	0.05705371	0.47010157	-0.58648854	0.6086454	-0.41089773	0.26585814
-1.1995531	-0.5945595	-0.052886095	0.65824693	1.1807642	-0.70754474	-1.5509146	1.2616874	0.94742733	0.27789178	-0.4714532	0.52972317	-1.2914517	0.70027	-0.58605266	-0.3226681
-0.4270071	0.047273766	-0.56255865	0.15108584	0.16864653	0.2827459	-0.5036106	0.44380856	0.61489207	0.5590924	-0.37648523	-0.29249778	-0.54705495	0.22310822	0.44254506	-0.0899163
-0.02700093	-0.08794578	0.025993424	0.056812588	0.051476024	-0.025768295	0.07402576	-0.02816495	-0.04066013	-0.11336257	-0.03313765	0.12846154	0.000893979	-0.17944686	-0.061794166	-0.15152796
-0.19196814	0.015473917	-0.10821923	0.22091946	0.14299022	0.09474953	-0.2692163	0.3003414	0.2340051	0.17908747	-0.034024127	0.0040642386	-0.3063802	0.12361274	0.10843983	0.12947407
-0.076117516	-0.17134303	0.474496	0.541447	0.44921947	-0.41196108	-0.47625467	0.6161081	-0.14929363	-0.25822777	0.31200662	0.35830396	-0.41878566	0.49072763	-0.4699476	0.85289526
0.13535777	0.42372727	-0.6830837	-0.21317105	-0.4319143	0.592024	0.26241112	-0.26077783	0.05231267	0.22961539	-0.029226236	-0.4098121	0.18196039	-0.45200035	0.6520266	-0.31754312
0.19950677	0.5345567	-1.282508	-0.7921854	-1.2726616	1.298195	0.44769117	-0.043996666	0.2320181	1.2698908	-0.41445282	-1.2497215	-0.03568792	-1.0791154	1.3653558	0.5722591
0.4457566	0.40087172	-0.2099195	-0.11811723	-0.3448464	0.22525796	0.57844454	-0.46534824	-0.30824015	-0.39074266	0.28519392	0.032375112	0.45030576	-0.39992937	0.17055787	-0.20511456
-0.2947629	-0.104842655	0.15823957	0.32011813	0.4950858	-0.4104589	-0.44074523	0.38367864	0.07628581	-0.24158345	0.11190655	0.40599382	-0.33563724	0.30727306	-0.43490094	0.025777156
-0.4671659	0.20782395	-0.00930057	0.54908806	0.6243807	-0.38527748	-0.76125157	0.5778321	0.35004252	-0.03644584	0.11612035	0.38104677	-0.63809323	0.58712333	-0.2735424	0.40945563
0.24967936	-0.37336323	0.2778593	-0.2074664	-0.3291531	0.063878015	0.13909988	0.31147882	-0.19285251	0.18575189	-0.02278183	-0.32969007	-0.075007595	-0.24660224	-0.004145345	0.8243516
-0.17860381	0.3012432	-0.55447775	0.4021235	0.30815515	0.051137645	-0.13561277	-0.098892815	0.19100094	-0.17295742	-0.016188905	0.2141712	-0.048951175	0.07380249	0.145688	-0.54996115
0.5006172	0.897679	-1.1172904	-0.369898	-0.8206141	0.89142066	0.73294455	-0.57609594	-0.21292906	0.20119092	0.12187547	-0.546836	0.47315815	-0.89169455	0.9481919	-0.30161792
-0.400174	0.35538393	-0.1269846	0.44620907	0.46757227	-0.18783697	-0.6348396	0.56678957	0.2604546	-0.01316477	0.29114693	0.23694552	-0.5477452	0.49538636	-0.07071595	0.49191937
-0.15919961	-0.42027906	0.17967524	0.08673495	0.060677104	0.02642358	-0.32548264	0.5111666	0.15115678	0.2527869	-0.1644243	-0.040775333	-0.4033528	0.02393507	-0.043698378	0.34229064
-0.29157847	-0.12596264	0.57170564	0.56288844	0.6853351	-0.64773935	-0.59965765	0.60122633	0.0016394156	-0.49909893	0.3842781	0.6035688	-0.5172938	0.595762	-0.69433075	0.5061883
-0.22069448	-0.59402496	0.40910128	0.0076483735	0.07532444	-0.23021853	-0.20953172	0.3341946	0.11775465	0.03187842	-0.13430296	0.10948446	-0.25324762	-0.14020984	-0.3552991	0.008080123
1.3070176	1.6661133	-0.88229746	0.7117469	-0.48331738	0.15464303	1.5459526	-1.3412641	-1.4202361	-1.4018966	1.5102932	0.9588449	1.4359236	-1.0098562	0.2575552	-0.87282836
-0.2488426	0.8332634	0.30838025	0.8578453	0.8709907	-0.6761137	-0.55520076	0.31197223	-0.24778035	-0.8587061	0.9148109	0.791185	-0.37993076	0.8037192	-0.65651274	0.61140895
-0.018645985	0.20587121	-0.16211584	0.34956163	0.25693035	-0.24434972	0.15307683	-0.2431652	-0.11284842	-0.39578024	0.14987953	0.52898175	0.14379494	-0.08335583	-0.20581084	-0.55018896
0.31252795	-0.1394606	0.12915908	-0.098965555	-0.335747	0.15830208	0.23813032	0.0844667	-0.16045137	0.087554805	0.11609896	-0.21013269	0.05827548	-0.15489838	0.063183784	0.73018235
-0.3522952	0.38380888	0.10504345	0.6614457	0.7285528	-0.5183993	-0.6415915	0.50284106	0.046909533	-0.33405915	0.42896226	0.5816444	-0.5224618	0.6414333	-0.4432184	0.4385476
-0.07705564	-0.013296791	0.4267685	0.4913263	0.5325604	-0.5125003	-0.35455963	0.3479333	-0.18568206	-0.5582031	0.35395685	0.6230054	-0.20849505	0.42955008	-0.58695024	0.3319924
-0.3204193	1.8031209	-0.48189467	0.7585727	0.63667154	-0.12453499	-0.59762836	0.40930027	-0.09222151	-0.09129898	0.94531125	0.25091052	-0.46713766	0.7824361	0.044821087	1.4585624
-0.043490022	-0.017267535	0.20212679	0.4459436	0.44652006	-0.38771462	-0.2977293	0.37428612	-0.04273601	-0.24427687	0.2747635	0.30764902	-0.2671465	0.3642916	-0.32748	0.47764143
-0.5389497	-0.52737796	-0.5567165	-0.2824644	-0.22103593	0.4794968	-0.38050932	0.37295747	0.59613067	0.6317531	-0.56429	-0.4002365	-0.45524892	-0.49113593	0.54043347	-0.6443705
-0.7844243	0.069923155	0.0975383	0.6554725	0.8386829	-0.6217066	-0.9914703	0.7498233	0.56135046	-0.1623558	0.07839847	0.5467884	-0.8215064	0.68718696	-0.5640346	0.22197406
-0.9513136	-1.1727636	-0.07121527	-0.031709086	0.55193365	-0.013483917	-1.1174388	1.0803835	0.8928902	0.7082444	-0.9321422	-0.0202437	-1.0305384	-0.3637846	-0.120818615	-0.7992683
-0.06985221	0.105678976	0.2922453	0.43798536	0.47130573	-0.3963234	-0.24889012	0.16916421	-0.028147157	-0.37866855	0.23458649	0.5160081	-0.1513626	0.38069427	-0.43765154	0.20955549
-0.012828334	0.8532562	-0.032378543	0.6168483	0.47977975	-0.3475142	-0.29424557	0.066447616	-0.16752116	-0.52852386	0.64101666	0.49035597	-0.17313546	0.5593404	-0.23994298	0.3768386
-0.5849077	0.8272843	-0.563353	0.50608706	0.5004103	0.048678134	-0.6569863	0.6844339	0.5167103	0.42689037	0.1601641	-0.00038226237	-0.77375025	0.6442805	0.22385632	0.86620843
1.0961177	1.2581223	-0.860605	0.003831528	-0.6321863	0.5313631	1.3336931	-1.2250726	-1.0600861	-1.1096631	1.0092257	0.396764	1.2040565	-1.0230473	0.627707	-0.919834
0.50783813	0.87905896	-1.2969477	-0.9960661	-1.7220193	1.4838543	0.7353156	-0.113391034	0.3187177	1.2406822	-0.5710774	-1.4534985	0.08017032	-1.1845157	1.4822843	1.0124611
0.4578264	0.0370245	0.09821332	-0.568738	-0.81954193	0.2790403	0.58122724	-0.40169922	-0.28632584	-0.017996829	0.0820635	-0.31206253	0.42238608	-0.7790334	0.12632519	0.19066994
-0.2896685	-0.19713962	-0.08586666	0.4498239	0.47260204	-0.22791824	-0.2007246	-0.012475015	0.18053506	-0.1705441	-0.10411905	0.5008184	-0.18504116	-0.007432684	-0.16671695	-0.61505187
0.005869519	0.5449491	-1.0119064	-0.06300635	-0.33079073	0.7255533	0.0836268	0.055878922	0.2981848	0.587377	-0.22599815	-0.5393823	-0.11725585	-0.41503853	0.77902216	0.23989446
-0.10108222	0.022455476	-0.028560707	0.28309202	0.26543185	-0.10351066	-0.20914735	0.09942789	0.0583117	-0.1250737	0.0509509	0.22267835	-0.1783321	0.15762433	-0.13022639	0.055579584
0.63244843	0.84030586	-1.0192204	-0.12181145	-0.46529055	0.60004026	0.86546314	-0.7213212	-0.3762042	-0.3350278	0.39005926	-0.066949286	0.6287051	-0.8407196	0.6372063	-0.6350068
0.3026644	0.4918892	-0.20631504	0.18879803	-0.10149765	0.26981845	0.19961782	-0.038230855	-0.2490439	0.055605784	0.36319894	-0.1394855	0.08306962	0.02457239	0.26826128	0.66836077
-0.053480417	-0.1807855	0.16850947	-0.019729236	0.14698754	-0.113328606	0.104332276	-0.06743248	0.09407791	-0.23291935	-0.116529815	0.2838291	0.051860973	-0.30511385	-0.20981891	-0.37536362
0.35865083	0.63321155	-0.65791625	-0.5122043	-0.69398415	0.6806022	0.53869075	-0.5989079	-0.1194385	-0.072386935	0.18888196	-0.399268	0.4620062	-0.7253137	0.6728384	-0.6886494
-0.14651398	-0.46844307	0.15099858	-0.106388755	-0.0838349	0.018162135	-0.09951288	0.29208666	0.16370872	0.22233057	-0.22574855	-0.16354242	-0.24774933	-0.106020264	-0.049581494	0.12995137
-0.10666267	0.34356618	-0.38450792	0.2850803	0.14878327	0.06113855	-0.1372422	0.1216371	0.086761214	0.074032195	0.044849444	0.058493376	-0.13117196	0.21480195	0.18588537	-0.034434836
0.15186657	0.64578855	-0.91921586	-0.25222012	-0.41713798	0.77144855	0.29838863	-0.20451717	0.1632709	0.49693024	-0.15461817	-0.57239604	0.077703826	-0.30449042	0.8019518	-0.099442974
-0.07298	-0.110377304	-0.108578086	-0.252655	-0.16471718	0.012746811	0.26840723	-0.26218674	0.023226472	-0.12734582	-0.14577377	0.14078674	0.15057747	-0.7842643	-0.122641094	-0.88426715
0.52986693	0.5719757	-0.045048542	0.161573	-0.12819974	-0.048389718	0.6122814	-0.53391796	-0.5212068	-0.5958302	0.61647034	0.2861298	0.5922256	-0.15214102	-0.032941435	-0.001797422
-0.77401716	0.8078828	0.214691	0.89713734	1.0447229	-0.7828531	-1.0060047	0.6821162	0.2632915	-0.77455735	0.6934064	0.8335032	-0.7606379	0.91642743	-0.73476666	0.5323242
-0.29539132	-0.12516515	-0.147214	0.03912566	0.06868286	0.13300337	-0.25895768	0.34861732	0.32670802	0.255516	-0.20426823	-0.16572157	-0.3726748	0.018208735	0.122885436	0.12723807
-0.048696678	0.15692697	-0.14869334	0.08239906	0.010703555	0.14048015	-0.16919799	0.16738252	0.034769338	0.15513493	0.0715926	-0.10303458	-0.22134668	0.10419938	0.20101751	0.34605995
0.19840866	0.08018573	0.22040735	0.10098057	-0.084858656	-0.14427304	0.23821549	-0.12053881	-0.25345933	-0.28464106	0.2888683	0.11859489	0.2052432	-0.04312209	-0.13825504	0.26245624
-0.53517455	-0.20234154	-0.68583876	-0.1861984	-0.08117437	0.5447034	-0.44746467	0.57133585	0.6769732	0.86976355	-0.6611364	-0.60816944	-0.6883017	-0.12905224	0.647636	-0.06057504
0.26999274	0.35193127	-0.1915867	0.026211318	-0.13960521	0.044527937	0.46750072	-0.3643259	-0.15855831	-0.44988415	0.21267144	0.27187937	0.31001455	-0.4963536	0.042834755	-0.512951
-0.101024225	-0.12506306	0.14721413	0.2315689	0.18295167	-0.07275141	-0.21071723	0.24461323	-0.039607234	-0.07222759	0.0841245	0.13364711	-0.23088394	-0.0049221213	-0.1906481	0.18026
0.17030717	0.34950578	-0.05506003	0.20315246	0.09775848	-0.031325627	0.2430817	-0.20757468	-0.29738522	-0.32401484	0.25141433	0.2995422	0.2272472	-0.04145111	-0.106368825	-0.124170244
0.072141156	0.40277714	-0.28457725	0.24575363	0.09641465	0.11224772	0.108868934	-0.23066317	-0.08062693	-0.18533991	0.13481212	0.22364531	0.14896622	-0.06443225	0.090206295	-0.2937179
-0.081251696	0.16095446	0.52062273	0.6261498	0.6441904	-0.5982104	-0.45924994	0.38087088	-0.20271857	-0.5640138	0.5944765	0.6495346	-0.3101759	0.53331727	-0.6317313	0.63779795
0.09773388	0.09796716	-0.105080836	0.024392458	-0.1906472	0.14271931	0.12227055	-0.10704264	-0.124745935	-0.0026184944	0.09194134	-0.047283772	0.0834015	-0.12312187	0.12878972	0.09662618
0.15891084	0.16401869	-0.22843298	-0.14238796	-0.4405435	0.33743796	0.28198138	-0.027137926	-0.10051513	0.17752163	0.018593792	-0.24740057	0.07150363	-0.44160107	0.27567613	0.28222397
0.16103238	0.104209006	0.38159487	0.30360597	0.1791244	-0.34640014	-0.076853864	0.052857336	-0.26484594	-0.49574342	0.40377656	0.41905418	-0.00904231	0.22165346	-0.41569322	0.36087903
-0.34278268	0.059417453	-0.35079205	0.2576275	0.31081975	0.06902349	-0.43393397	0.33940887	0.3169177	0.258426	-0.18152691	-0.009638527	-0.38237447	0.24225919	0.14739765	-0.10827335
-0.19213913	-0.049649984	-0.74818337	-0.7100575	-0.73688453	0.7917105	0.10220103	0.11101917	0.41448885	0.8606388	-0.566143	-0.80822915	-0.1909937	-0.7729666	0.85106975	-0.19146201
-0.12637682	-1.0967093	0.50585353	-0.50061476	-0.3346457	-0.17886126	-0.009857544	0.53629297	0.13831303	0.14103693	-0.39374274	-0.15971282	-0.34281367	-0.7008689	-0.35845098	0.025630819
0.12539108	0.29431376	-0.5583645	-0.33506873	-0.4427989	0.5114945	0.35972416	-0.2906762	0.0003107991	0.09066261	-0.10241091	-0.3383661	0.2209008	-0.6002703	0.5070419	-0.40087372
1.1890575	1.5056595	-0.97376776	-0.02323313	-0.74927974	0.57463264	1.5092028	-1.271076	-1.2098689	-1.1966598	1.2556567	0.46158698	1.3504174	-1.0228118	0.67748564	-1.0433604
0.12465143	0.32839462	-0.61577487	0.1199329	0.23692416	-0.005608899	0.28786814	-0.42198798	-0.021067524	-0.3840153	0.05011217	0.32856795	0.31261447	-0.2514399	0.13761696	-0.93475443
-0.109725386	-0.23174483	-0.18860939	-0.2728032	-0.2524555	0.33887133	-0.0359023	0.08697803	0.27410346	0.32064047	-0.24073546	-0.30637065	-0.116206184	-0.31166527	0.32713684	-0.081101984
-0.14296396	0.019163875	0.074233055	0.29396537	0.26199722	-0.21214257	-0.16619907	0.09405415	0.09020861	-0.18170828	0.013546984	0.3462166	-0.14674559	0.13281724	-0.22242035	-0.12448099
0.08141274	-0.041788608	0.18869442	0.21577218	0.16534717	-0.23492202	-0.002449637	0.104209825	-0.050612018	-0.22959098	0.17243491	0.22819848	-0.018470628	0.12430045	-0.2581411	0.15045348
0.1325128	-0.20793808	0.106170036	-0.37173948	-0.37868792	0.09388514	0.2888746	-0.14325757	-0.056002975	0.02224042	-0.07807527	-0.14671005	0.20533365	-0.59881234	0.044896837	-0.19138195
-0.22271186	0.12246539	-0.20870869	0.3825564	0.42223284	-0.15488987	-0.33971062	0.22766165	0.17088458	-0.07742706	6.4704975e-05	0.2788086	-0.23843738	0.24753375	-0.12153431	-0.16278182
0.44383416	0.49709433	-0.35787338	0.33091447	-0.04476821	0.0036043846	0.5260024	-0.5270852	-0.29764706	-0.5420349	0.4294314	0.47122344	0.49070883	-0.51582414	0.072843246	-0.316388
0.4530334	0.45400658	-0.55491996	-0.58242637	-1.0399905	0.72466743	0.7194158	-0.49947566	-0.19469336	0.334085	-0.021842606	-0.68506503	0.42572328	-0.7825648	0.7432416	0.21159934
-0.8240304	-0.044863347	0.6456402	0.7447149	1.1054573	-1.0052472	-1.0311445	0.8339081	0.3728791	-0.51819354	0.15282705	0.88295597	-0.88468057	0.8825713	-0.973575	0.15305105
0.5374446	0.8781063	-0.9179066	0.10654646	-0.24568954	0.3276477	0.7217352	-0.74089754	-0.48473912	-0.63194615	0.55401164	0.30978814	0.7058954	-0.7034329	0.45222944	-0.9192382
1.0071871	-0.1405089	0.39680266	-0.5802468	-0.8831442	0.004331535	1.1768689	-0.6015605	-0.95298797	-0.9348709	1.1188612	-0.11548666	0.8494864	-0.8197398	-0.33104122	0.38154203
0.21698874	-0.07757835	-0.026719943	-0.23364756	-0.66037196	0.28110385	0.3845648	0.03299085	-0.16926469	0.099761926	-0.0047981697	-0.26659748	0.17712821	-0.67496806	0.19825192	0.21281798
0.37899816	0.185723	0.082864955	-0.004752342	-0.24712992	0.0061195027	0.44452238	-0.24689516	-0.37057692	-0.24192695	0.2647576	0.044721548	0.36463267	-0.20572159	-0.0039081257	0.24373196
0.47984082	0.13627903	-0.2770796	-0.89484185	-1.3188223	0.77686757	0.750091	-0.34598523	-0.15096973	0.5571393	-0.18112384	-0.8456059	0.30933294	-0.9213238	0.68276155	0.44911304
0.9908794	-0.9105941	1.2806801	-0.25129384	-0.46492016	-0.8785791	0.814271	-0.2068162	-1.0773118	-1.2121646	1.0585157	0.617215	0.636407	-0.3408963	-1.1003617	1.1063135
-0.49826643	-0.41909614	0.3732007	0.3916111	0.5977673	-0.48345408	-0.6654746	0.58735454	0.3425399	-0.17184408	-0.21095589	0.55958533	-0.5524401	0.3224609	-0.5178268	-0.11810088
0.16693959	-0.07300447	0.39545178	0.12377011	0.013813708	-0.25368533	0.007056111	0.15266757	-0.24959923	-0.2204937	0.34042922	0.21919143	0.020837279	0.17499506	-0.3235254	0.54698926
-0.2739533	1.0058302	-0.35798037	0.77112937	0.82146066	-0.3591829	-0.55811596	0.22299835	0.12988026	-0.54280084	0.67315793	0.6076054	-0.33061147	0.7156018	-0.20812817	0.05818564
0.17788857	0.047263514	-0.17893617	-0.4123827	-0.56968254	0.43950608	0.35586485	-0.1682459	-0.044990245	0.33041146	-0.11350545	-0.4855375	0.11452549	-0.4009047	0.33801374	0.21763617
-0.69544786	-0.6209752	-0.34796092	0.11743095	0.34970093	0.3048095	-0.7191643	0.7638277	0.6807883	0.6346437	-0.57952183	-0.22173592	-0.7798708	-0.109084114	0.2324632	-0.45934358
0.87911016	1.0808963	-0.79723084	0.08925967	-0.6364762	0.52447695	0.9797231	-0.81430393	-0.71359295	-0.58672774	0.77721405	0.04174963	0.782804	-0.8166456	0.59551114	-0.37431753
-0.31806937	-0.4941254	-0.13607313	-0.24473757	-0.06836078	0.09818127	-0.14626838	0.1132491	0.30342662	0.23256016	-0.40543237	-0.016581483	-0.19158046	-0.63614595	0.026307471	-0.7600582
-0.24775104	0.13678995	-0.4730888	0.123891674	0.055736974	0.15507801	-0.20848507	0.041295446	0.1885837	0.109292455	-0.11414909	0.0022679653	-0.13371989	0.056124233	0.25038695	-0.2588191
0.07426193	-0.781215	0.5917151	-0.2229813	-0.1324247	-0.24996275	0.07579245	0.29211846	0.0021560865	-0.039220747	-0.14419869	-0.00044829704	-0.11666914	-0.26327363	-0.39463454	0.26800326
-0.07766924	0.006102561	0.49229562	0.39623013	0.47275925	-0.5556214	-0.37170932	0.40611112	-0.17194644	-0.43537295	0.38969463	0.5570803	-0.25064957	0.47999474	-0.65539867	0.54138505
-0.33414978	0.62189114	-0.3102893	0.51757693	0.485899	-0.20388481	-0.47265446	0.34519762	0.10552571	-0.1757053	0.37428614	0.34061196	-0.44136748	0.50703377	-0.07395058	0.43350548
0.2713331	0.17148839	-0.2042579	-0.15837327	-0.46362102	0.39967	0.2211842	0.042504974	-0.12170163	0.24198079	0.11576226	-0.36970624	0.053673472	-0.33097854	0.36867204	0.5511341
0.08356794	-0.47870803	0.57241017	0.16925253	0.06117227	-0.397921	-0.051879693	0.36729354	-0.14602272	-0.18381469	0.146283	0.24696757	-0.07965304	0.08719812	-0.4674286	0.49753776
-0.541421	-0.45177487	-0.15185201	0.102856785	0.20516938	0.026423411	-0.35670966	0.35562477	0.40071905	0.106707275	-0.423975	0.07210137	-0.4318797	-0.20676589	0.04638279	-0.7965271
0.031722646	0.23000179	-0.19038844	0.16175887	0.12848115	-0.023722991	0.04981348	-0.04316676	-0.058342855	-0.12055782	0.11927434	0.20263748	0.027599141	-0.03529182	0.030972641	-0.1269024
-0.05523315	-0.05661217	-0.53447634	-0.5358198	-0.85784215	0.83714324	0.015822962	0.4495793	0.3641966	0.7889715	-0.4741205	-0.801741	-0.36613342	-0.6835719	0.7639261	0.431514
0.15249595	0.5108613	0.2663086	0.5041028	0.3842208	-0.50442934	-0.1684916	0.050170545	-0.41534907	-0.8702317	0.8940078	0.6327679	-0.014979782	0.40810263	-0.4566779	0.374944
-1.0763569	1.1339794	0.14332965	0.95675784	1.2163273	-0.9824974	-1.2557158	0.9001333	0.6616095	-0.7723016	0.74940646	0.89591	-0.99456364	1.053247	-0.8863966	0.64099115
-0.58406204	-0.5895274	-0.5981768	-0.07677378	0.17102939	0.36905047	-0.68899864	0.6879844	0.57077926	0.7780023	-0.6040827	-0.32989776	-0.6846746	-0.31334683	0.39276415	-0.5143444
0.5321054	0.7505963	-0.6671419	0.5653555	0.28123477	-0.06202859	0.66180336	-0.58347446	-0.52356464	-0.85696447	0.6288633	0.75458765	0.48424625	-0.42877567	-0.014646927	-0.6139766
-0.02625315	-0.030044064	-0.10066597	-0.13118693	-0.15178211	0.22241856	0.00585293	0.10203113	0.10392477	0.25891998	-0.08434129	-0.20455503	-0.05067412	-0.14181332	0.19684665	0.10781882
-0.4240069	-0.52587444	0.23971729	0.12380251	0.29060528	-0.14423335	-0.58080477	0.76816326	0.28811368	0.31984746	-0.22908029	0.025786737	-0.6074703	0.1642155	-0.19365287	0.3890885
-0.4536499	-0.51031446	-0.3336719	-0.107500084	-0.08452781	0.32338992	-0.37319115	0.5902238	0.58027214	0.54070723	-0.5729132	-0.3824974	-0.5728717	-0.3870906	0.33050627	-0.42329773
0.17243387	-0.14219111	0.14402682	-0.31121024	-0.42481697	0.20557411	0.31396836	-0.099820405	-0.1057714	0.03347964	-0.005584024	-0.20417053	0.15182203	-0.58719015	0.05002487	0.040505014
0.030290874	0.31045097	-0.44621885	0.11459002	-0.046570975	0.32242042	0.023985995	-0.020269597	0.09593869	0.14074713	-0.04465507	-0.17306878	0.035488	-0.019489132	0.3134722	-0.06278554
0.09418395	-0.15215954	0.28327978	-0.04148651	-0.08996793	-0.042193092	0.024043154	0.18282433	-0.094241396	0.02306056	0.10180555	0.0016895514	-0.06647168	-0.058841825	-0.12599184	0.49261755
0.043771867	0.45783323	-1.0168846	-0.39538863	-0.9656025	1.0458157	0.0010901826	0.5068906	0.4649555	0.9789198	-0.5761122	-0.957026	-0.4440964	-0.69497323	1.044275	0.6438006
0.0129092755	-0.7325953	0.2841523	-0.61088747	-0.5832089	0.112567574	0.21213004	0.068788595	0.050802916	0.099968605	-0.25751784	-0.16028363	0.02439401	-0.92397267	-0.07829913	-0.13193555
-0.25333226	-0.31793237	-0.2496933	-0.2804585	-0.21243148	0.2825075	-0.10280782	0.1285674	0.32906404	0.30180854	-0.33034897	-0.23887965	-0.13631228	-0.5676212	0.31422096	-0.48207757
-0.023630328	0.08234525	0.1830133	0.3961575	0.2698091	-0.3429584	-0.13536593	0.17333108	-0.0565806	-0.3196817	0.22904298	0.35389	-0.10645725	0.31573	-0.30166557	0.27703178
-0.91327465	-1.1807797	0.013926778	-0.26418832	0.35045934	-0.10831441	-1.0252916	0.9863212	0.7752792	0.65795314	-0.8726419	-0.08322608	-0.89294136	-0.37842292	-0.092169665	-0.7269979
0.13178991	0.58349144	-0.96567494	-0.5548716	-1.2000632	1.068399	0.22204205	0.2043409	0.43870988	0.93351656	-0.48001692	-1.0749047	-0.2430311	-0.8021302	1.0224472	0.6949173
-0.11661636	-0.095322736	0.3548403	0.3485836	0.36353552	-0.44001922	-0.26153535	0.19803749	0.0014084833	-0.38897628	0.12013706	0.51291263	-0.19075121	0.283167	-0.5189677	0.09024328
-0.88189936	-0.8912666	-0.6181738	-0.14583643	0.38436	0.33097154	-0.9509892	0.73039013	0.8975661	0.83021784	-0.9413483	-0.2492323	-0.87797445	-0.42298585	0.3606631	-1.0133789
0.06439622	0.3450128	-0.25079215	0.11885874	-0.20419697	0.3035413	0.0396578	-0.07417656	-0.007143821	0.057896446	0.07267566	-0.09825631	0.055159416	-0.08273815	0.2401143	0.16968761
0.24127775	0.295486	-0.0746022	0.07477428	-0.06702379	0.11205395	0.04863336	0.053267542	-0.115204915	0.033572424	0.19234219	-0.07988784	0.050365057	0.031338096	0.09483797	0.440351
-0.23753041	0.342316	-1.2261244	-1.0652999	-1.4364493	1.3744459	0.095759794	0.44607618	0.87989694	1.3815571	-1.0699903	-1.4426012	-0.5170129	-0.9816135	1.3571026	0.53506094
0.044510074	0.45467103	-0.19368519	0.36850643	0.2604247	-0.11692242	-0.12422533	0.041641604	-0.09931624	-0.26852953	0.37994948	0.1925036	-0.020516671	0.25112903	-0.05726341	0.18446004
0.19297777	-0.009365449	0.015361983	-0.13607265	-0.27539676	0.067053005	0.40337142	-0.29607055	-0.12453539	-0.23936911	0.10270808	0.070586234	0.29202166	-0.63692504	0.016546993	-0.33528093
0.026594985	-0.10757543	-0.13148047	-0.28978577	-0.38366258	0.2696139	0.18924908	-0.07622198	-0.002244405	0.16658263	-0.11688949	-0.26218075	-0.0018777044	-0.40913203	0.2329836	-0.032219104
0.20090596	-0.15847738	-0.110242836	-0.5869386	-0.83499104	0.4676941	0.26717535	0.049290992	0.013571686	0.46916527	-0.19371924	-0.6374554	0.05939472	-0.5898736	0.3515732	0.54769063
0.60947037	0.99658734	-1.0634038	-0.37746724	-1.0576788	0.9383424	0.7525797	-0.40409225	-0.12287651	0.39876428	0.03463854	-0.69144297	0.35315323	-0.80036384	0.9052264	0.6103007
0.15383394	-0.041725464	0.14885858	-0.112780415	-0.18614723	-0.01588802	0.09679033	0.028920371	-0.12347823	-0.077871725	0.15153149	0.0031133764	0.06411032	-0.122831754	-0.031222899	0.31951872
1.0186756	1.2594626	-1.041359	0.46572754	-0.33224475	0.41362566	1.1384572	-0.9311546	-0.932453	-0.95208836	1.0176303	0.5028155	0.92739916	-0.7985765	0.55401504	-0.571602
-0.37543625	-1.006826	0.4818262	-0.0040842434	0.18399137	-0.36131135	-0.47659114	0.7374362	0.35069972	0.17618883	-0.41687536	0.22372228	-0.54063684	-0.096882105	-0.4799625	-0.14287573
-0.20359145	-0.0481316	-0.18524717	0.04886665	0.09582578	0.08729451	-0.1747889	0.23854412	0.2386438	0.18233596	-0.13521737	-0.05462368	-0.19185345	0.064198844	0.09797979	-0.013524222
-0.6134527	-0.56815624	-0.20700704	0.11263756	0.53637356	-0.039175723	-0.77163315	0.6908521	0.57489234	0.40332794	-0.49432898	0.008950064	-0.768061	0.1963908	-0.035750013	-0.33378235
0.74999607	-0.7949639	1.0432953	-0.38974687	-0.6036506	-0.61472094	0.7022436	-0.08542889	-0.77438277	-0.7784691	0.69913286	0.3351698	0.40690145	-0.5461757	-0.8364811	0.9093383
0.16166985	0.12108977	-0.24645743	-0.0786847	-0.26770726	0.2929616	0.16743112	0.010318618	0.03358773	0.22242133	0.026916895	-0.35744435	0.015240039	-0.2372903	0.26922545	0.19133013
0.3197394	0.33345577	-0.26119655	-0.19717653	-0.37223154	0.2692353	0.39186335	-0.30989736	-0.20301406	-0.046798427	0.120947555	-0.13313653	0.29570797	-0.28696033	0.27912116	-0.20042683
0.012712278	0.052194804	-0.18215002	-0.1053552	-0.22068042	0.25613537	0.18209887	-0.1218538	0.09113102	0.11295737	-0.0900888	-0.13311242	0.1033651	-0.32950243	0.1837137	-0.11658813
-0.43651235	-0.26300466	-0.5074718	-0.19807826	-0.23581368	0.4740323	-0.30058706	0.46376503	0.60731435	0.6378098	-0.61439043	-0.5207848	-0.50723547	-0.3699997	0.46820143	-0.3568924
0.43198255	0.6218556	-0.3807583	-0.12281009	-0.4945754	0.48765764	0.39697123	-0.2973135	-0.27416518	0.1365888	0.33912304	-0.45896152	0.2910237	-0.17783073	0.5516007	0.52028114
-0.4231141	-0.97593546	0.20590518	-0.7763092	-0.35506573	0.01715991	-0.1568281	0.38102874	0.48321968	0.4101941	-0.62548405	-0.3807286	-0.33318007	-0.7967668	-0.01614735	-0.4417448
-0.0013751388	0.1975909	0.045604087	0.4025287	0.42778948	-0.24454576	-0.10529933	0.10941853	-0.04604169	-0.2847222	0.13710746	0.36110243	-0.038121186	0.23637728	-0.19175997	0.051393334
0.14511634	0.24927342	-0.37981528	-0.11931641	-0.26492193	0.32874975	0.36716178	-0.29532108	-0.086526304	-0.14633344	0.009864888	-0.04801691	0.18874566	-0.5824596	0.25589675	-0.3387365
-0.3247322	-0.64503473	0.44033608	0.07533881	0.22126864	-0.41940615	-0.36124614	0.55475473	0.18332346	0.07850081	-0.18288769	0.2698926	-0.40018597	0.1505581	-0.40802947	-0.012862092
0.17585474	0.8504739	-0.62180334	0.2287421	-0.004022263	0.3040875	0.099232584	-0.3076233	-0.019172942	-0.10068834	0.20266055	0.011232443	0.17694266	0.046287738	0.3818812	-0.28569642
0.17238452	0.46956244	-0.35614341	0.017136618	-0.22886604	0.4724149	0.018180275	0.114530206	0.013712828	0.361459	0.08126393	-0.4250057	-0.09129904	-0.11172831	0.48748997	0.59659374
-0.1619063	0.16624835	-0.8304422	0.019286864	0.01954839	0.40881658	0.008132544	-0.07851112	0.30686632	0.16370258	-0.25017416	-0.19487545	-0.011539251	-0.2808434	0.45127916	-0.69666237
-0.59784687	-0.33550665	0.26070082	0.5282292	0.57992643	-0.38987756	-0.73414695	0.7046574	0.42372385	0.0118448995	-0.07439663	0.42739543	-0.7222933	0.5035183	-0.4267026	0.18604726
-0.32345912	-0.23858479	-0.30181566	0.03985951	0.20343134	0.02231076	-0.26426774	0.16890244	0.3582536	0.1428546	-0.32361567	-0.002274886	-0.3034836	-0.10796742	0.08325018	-0.49024618
-1.0261165	-0.6504336	0.1770564	0.60214645	1.0684762	-0.701276	-1.2587659	1.0767971	0.7947842	0.09479551	-0.31124014	0.6821336	-1.1259604	0.7374482	-0.74324554	-0.35347602
-0.08125888	0.15080291	-0.31193796	-0.016475946	-0.06057336	0.31886426	-0.086411916	0.042919524	0.26102746	0.18452223	-0.18680061	-0.19928703	-0.08413803	-0.05984848	0.30953014	-0.100633346
0.05584379	0.12974238	-0.23360088	-0.0010609903	-0.087614015	0.1361167	0.10333146	-0.11669347	0.07258314	-0.11817781	0.03911615	0.04132884	0.038960233	-0.22968458	0.17916097	-0.20660666
-0.11947354	-0.3426545	0.27985996	0.1710388	0.21164623	-0.26400363	-0.3385012	0.32581943	0.08518643	-0.040762335	-0.03520624	0.22540125	-0.32271254	0.13995782	-0.31428662	0.14806357
-0.5387039	-0.5159495	-0.45788333	-0.27836195	-0.1665739	0.5943093	-0.62636805	0.77246374	0.6574822	0.9226452	-0.71984273	-0.6554518	-0.7940765	-0.29862928	0.56076556	0.010542957
-0.41622174	-0.6652512	-0.022153499	-0.14944613	0.12846792	0.047031768	-0.29355812	0.2824114	0.43446365	0.21848239	-0.43934464	-0.015929617	-0.33608994	-0.40244278	-0.02172551	-0.496655
-0.4813864	-0.31916627	0.04506214	0.34430993	0.6394445	-0.29112792	-0.3705854	0.28078565	0.27938947	-0.092554085	-0.23843643	0.42812505	-0.35515872	0.14897619	-0.3211878	-0.63076043
-1.2578795	-1.3071874	-0.27769879	-0.13994943	0.7040597	-0.017536769	-1.3996195	1.2950305	1.1583707	0.9090664	-1.1601261	-0.07840737	-1.2641594	-0.117661834	0.043516245	-1.1717131
-0.21216497	-0.12592304	-0.51467305	-0.49363136	-0.45443398	0.6276749	-0.056997277	0.18318671	0.4376332	0.64857614	-0.54814744	-0.6824457	-0.1904678	-0.5533753	0.5775628	-0.08134102
-0.7183081	0.56987286	0.47494936	0.87321997	1.0393325	-0.8348322	-1.0560148	0.8104648	0.12750448	-0.60835767	0.69790506	0.8405319	-0.82149595	0.944516	-0.7455654	0.84684587
-0.6123151	-0.73589003	-0.14946935	-0.10714316	0.22693525	-0.038392104	-0.51494205	0.50777435	0.5410536	0.37809396	-0.6177454	-0.14375797	-0.5259639	-0.12369163	-0.037788227	-0.5648008
0.20878613	0.29472083	0.053826954	0.22621138	0.04837956	-0.078078315	0.16127586	-0.166995	-0.26803347	-0.35524288	0.3536488	0.2596595	0.21384436	0.0039787684	-0.16361733	0.029520718
0.53441566	0.6052255	-0.51882535	-0.5555699	-0.8328364	0.7325043	0.83449167	-0.6758285	-0.342146	-0.06729704	0.2014746	-0.4519684	0.6961291	-0.8509112	0.58378774	-0.46392924
-1.0108787	-1.1125146	-0.14303908	0.23787896	0.89604264	-0.14520502	-1.270939	1.0918547	0.94829094	0.6288113	-0.93086886	0.26646763	-1.1741083	0.030937763	-0.20051734	-0.88999075
0.14880517	0.022516115	-0.19029425	-0.17444678	-0.50944334	0.49054867	0.106032364	0.16512363	0.024858015	0.23732859	-0.088855796	-0.40148377	-0.07859196	-0.4803339	0.32943246	0.31485477
0.16337773	0.35610753	-0.3068731	0.060693696	-0.196985	0.15163532	0.29898787	-0.35175547	-0.13952607	-0.13883503	0.11494969	-0.0006244276	0.22245444	-0.19948927	0.19691102	-0.32649535
-0.82686913	0.5559677	0.25133258	0.85197186	1.0083086	-0.73208517	-0.9848583	0.77289844	0.40912285	-0.505311	0.5888575	0.76117015	-0.86495215	0.91452456	-0.62870145	0.6146759
-0.0020280774	0.3373245	-0.7582382	-0.50089544	-0.7086865	0.75883263	0.26134846	0.021425333	0.34010282	0.81210315	-0.40229842	-0.8116861	-0.102259584	-0.5098371	0.7561195	0.4380225
-0.44818345	-0.28329384	-0.20821889	0.1679943	0.31595838	0.09755457	-0.5679646	0.72782534	0.4866509	0.402552	-0.283711	-0.059545156	-0.6831745	0.19819756	0.10660264	0.033146605
-0.31393012	0.24962917	-0.08041579	0.43687364	0.4735034	-0.21473129	-0.4887627	0.38963002	0.18638965	-0.00025593388	0.07237938	0.283001	-0.45211017	0.40331003	-0.1502883	0.22240607
-0.029598586	0.2649328	0.048764113	0.28374806	0.14220908	-0.10406514	-0.13752918	0.12849142	-0.17342989	-0.13019417	0.3299042	0.1657923	-0.15605065	0.20890006	-0.05793307	0.52065045
0.34557068	0.39061692	-0.19068097	-0.17698309	-0.4377211	0.30241075	0.53298455	-0.43547523	-0.2047213	-0.059901975	0.19670969	-0.20689476	0.41481724	-0.4462482	0.2890991	-0.09897038
0.35572323	0.1319436	-0.17915256	-0.53130776	-0.6628191	0.3928203	0.46244612	-0.34925425	-0.16743523	0.1366605	0.0340913	-0.44204375	0.39896104	-0.6393847	0.34148014	-0.020826092
-0.32859638	-0.24460207	-0.0704779	0.059316363	0.16186921	0.09629537	-0.3509587	0.34389648	0.28231472	0.23459764	-0.24392892	-0.0921931	-0.34463084	0.016552225	0.07248241	-0.053517222
0.024567189	0.0077094063	-0.21153337	-0.042437375	-0.11811107	0.2111401	0.15743068	-0.0605509	0.0948879	-0.032659184	-0.11909782	-0.05869648	0.010391996	-0.38007823	0.09866604	-0.35519958
0.3073441	-0.26205453	0.6859751	0.043271344	0.039274283	-0.4731755	0.18623295	0.03448753	-0.36842608	-0.5985053	0.41896996	0.4590912	0.16619392	-0.015503222	-0.6167664	0.45223397
-0.27779317	0.39279634	-0.15840858	0.5026779	0.5545469	-0.36569843	-0.38924947	0.206885	0.09619967	-0.37709382	0.28179795	0.56967807	-0.24754478	0.48310938	-0.37616798	-0.11476762
-0.025474006	0.13608482	-0.733762	0.048929155	0.16865438	0.2331157	0.15229423	-0.16582665	0.18446586	-0.03846471	-0.15089539	0.062111687	0.01781002	-0.5085802	0.31397086	-0.82511616
0.017883081	0.0749527	-0.09737746	0.16565141	0.012414642	0.19546989	-0.12227196	0.22742464	6.8483256e-05	0.12664878	0.049227733	-0.115713105	-0.13517934	0.06086782	0.16663828	0.3346542
0.74865574	-1.0669385	1.1784672	-0.7868976	-1.0654558	-0.6312667	0.7675288	-0.09748047	-0.7922915	-0.705446	0.63197136	0.4245646	0.44562933	-0.8852269	-0.92958766	1.0739113
-0.36207902	-0.1802783	-0.6060791	-0.09149376	0.036174357	0.28690687	-0.18277171	0.1027799	0.38492623	0.2996716	-0.4292827	-0.18755652	-0.21924803	-0.26332757	0.37674975	-0.65191746
-0.1217586	-0.062183414	-0.55711776	-0.5081272	-0.81235206	0.7363306	-0.016432744	0.19832227	0.42476448	0.71924657	-0.4600812	-0.7653373	-0.2877907	-0.6735166	0.6517493	0.004454189
-0.48777813	-0.78384787	0.10606468	-0.08643036	0.20090105	-0.056721337	-0.43243545	0.48946464	0.48369503	0.24822138	-0.5518307	0.028333442	-0.44641203	-0.21678203	-0.1591948	-0.42668587
0.09443191	-0.17380506	0.13639858	0.05679657	-0.06621293	-0.013662531	0.010813398	0.12530513	-0.076286614	-0.008243388	0.1431887	0.025146754	-0.017368559	0.04557772	-0.07625611	0.33525893
-0.09798518	0.23023815	-0.114699066	0.22766417	0.13889818	-0.041843824	-0.17302066	0.20008701	0.033348225	0.0051761097	0.16417854	0.046456408	-0.14899366	0.25535426	-0.01134222	0.4398905
0.2494408	0.32146412	-0.3361999	-0.37534437	-0.43612	0.41117895	0.46840042	-0.35413694	-0.1176121	-0.010695176	-0.017141348	-0.23879844	0.39007208	-0.5139759	0.3142887	-0.2884341
-1.0461644	-1.0463212	-0.027797585	0.26134273	0.8246423	-0.1903802	-1.2171993	1.1273018	0.9362846	0.7185763	-0.874573	0.2439146	-1.0633323	-0.0009280043	-0.18738717	-0.91533387
-0.1678349	0.18805107	-0.44047433	0.07804516	0.014631339	0.17852107	-0.20846117	0.15468477	0.18177418	0.20851119	-0.022365974	-0.12179908	-0.27917746	0.1733112	0.25302362	0.15487504
0.12886123	0.39114633	-0.058534447	0.3353886	0.19210234	-0.11483798	-0.05346711	-0.0031460614	-0.1688449	-0.29414555	0.2984592	0.25370756	0.0037097214	0.23916616	-0.056931105	0.16900714
0.23735484	0.40090752	-0.40546066	-0.22830059	-0.32693434	0.34722796	0.3600035	-0.33351153	-0.11153665	-0.016630067	0.04825935	-0.28477773	0.23219746	-0.37644482	0.3414665	-0.20343842
0.11422639	0.22852221	-0.33454394	0.028553255	-0.138367	0.2497746	0.21733545	-0.24141258	-0.012479746	-0.052403037	0.117045425	-0.07820071	0.19772767	-0.16185343	0.16851816	-0.15822792
-0.24744517	-0.038671643	0.18524428	0.4800267	0.527282	-0.405573	-0.4721979	0.35274383	0.09566696	-0.20012194	0.110984445	0.47450492	-0.35946825	0.38779745	-0.4122181	0.017273156
0.63995963	0.8340021	-0.48270917	0.17831638	-0.18550713	0.22770086	0.7894144	-0.7987733	-0.6470448	-0.80878603	0.7645983	0.35348243	0.76640534	-0.2662837	0.2491804	-0.5227756
-0.2897468	0.24095488	0.18760484	0.48794398	0.5942409	-0.56155944	-0.53254044	0.2793281	0.043578018	-0.40988174	0.3355322	0.54409	-0.38476518	0.49118918	-0.49476054	0.12570405
0.45888823	-0.4394074	0.53247374	-0.4225584	-0.5034654	-0.20608667	0.4987687	-0.23425837	-0.39746216	-0.32273397	0.2058501	0.020081706	0.37773246	-0.5202696	-0.3321096	0.41502592
-0.27001446	-0.20437545	0.06133872	0.15849058	0.30202046	-0.09780731	-0.41833332	0.3741927	0.27107137	0.085264236	-0.13999341	0.09787051	-0.31534457	0.20996237	-0.108830914	0.019060569
-0.0372249	0.018962855	-0.26548305	-0.20329778	-0.26490614	0.38471597	0.09525552	0.0064244745	0.114320576	0.28905678	-0.17067124	-0.32892194	0.015115015	-0.41080564	0.36987498	-0.17501093
-0.0096444525	-0.3921281	0.17568566	-0.37328625	-0.35704163	-0.06779718	0.22661951	-0.078536	-0.048992056	-0.008802291	-0.19982015	-0.014178653	0.06383068	-0.71154577	-0.09032957	-0.28543666
-0.31436524	0.12783235	-0.048867017	0.48873767	0.5729595	-0.30899158	-0.43100646	0.30810997	0.15127279	-0.2026878	0.07599307	0.38984734	-0.37373874	0.37971246	-0.20970875	-0.04412295
-0.22332972	0.10328591	-0.24542505	0.19509664	0.1958162	0.14037673	-0.32617146	0.21732464	0.23109779	0.25304788	-0.11505018	-0.010361471	-0.2464431	0.19748352	0.1693714	-0.03601738
0.5980928	0.81153125	-0.33994764	0.14910825	-0.10490222	0.102296524	0.5402993	-0.5491216	-0.597973	-0.69059956	0.66748434	0.18484762	0.5448904	-0.10342694	0.15433215	-0.27639148
0.37542766	-0.020714913	-0.1731663	-0.5361774	-0.9035799	0.48691472	0.44734195	-0.102719404	-0.1473541	0.37336534	-0.14494583	-0.5046631	0.12560673	-0.7118546	0.39501455	0.50075233
0.5173054	-0.0320001	0.19698632	-0.3825041	-0.6778446	0.12207103	0.48027393	-0.056184318	-0.44408536	-0.0069976966	0.24204116	-0.22513236	0.29963362	-0.53724813	0.07070244	0.5723587
-0.105283506	-0.18239072	-0.18979913	-0.2257561	-0.14654395	0.22949627	-0.15409753	0.22941183	0.16123812	0.32750875	-0.2315612	-0.29396352	-0.23208416	-0.09159443	0.21764752	0.109060206
-0.41542032	-0.70706195	0.10264216	-0.2748394	-0.08019093	0.073618226	-0.28633827	0.3852851	0.3702419	0.33280125	-0.4887234	-0.20512304	-0.396492	-0.3466551	-0.02212347	-0.21521924
-0.39831373	-1.1902859	0.39752588	-0.5886062	-0.13621487	-0.27376395	-0.30139217	0.57651675	0.3700631	0.1739863	-0.5524801	-0.007584105	-0.39943117	-0.6817129	-0.4288644	-0.40523604
0.13340595	0.4902918	-0.48803255	0.20524257	0.17414983	0.08987433	0.22620454	-0.35721913	-0.06245352	-0.23627457	0.18289189	0.15615837	0.21337256	-0.06588471	0.22214825	-0.40896547
-0.1669657	0.042272933	-0.37579277	0.19207147	0.19738056	-0.011101587	-0.17864347	0.053548843	0.19528411	-0.14502086	-0.13991505	0.18482772	-0.115095764	0.08545227	0.045590863	-0.51784366
-0.3225794	-0.27095178	0.030157454	0.2481419	0.47111115	-0.18341236	-0.355576	0.3126794	0.27183482	-0.07758145	-0.20502093	0.34492445	-0.36225337	0.06564358	-0.21730387	-0.39498416
-0.31492397	-0.25859612	-0.009331942	0.06145995	0.25698447	-0.054547645	-0.3117413	0.23881584	0.2517976	0.038305104	-0.20662461	0.13972688	-0.301887	0.042517506	-0.10436401	-0.29144225
-0.115918055	0.11969459	-0.29453728	0.13458718	0.09760352	0.17803168	-0.20999928	0.09777393	0.17135675	0.14907439	-0.093609355	-0.049201988	-0.143633	0.0407265	0.18961301	-0.07172024
1.0584526	-1.405713	1.4564571	-0.9708212	-1.2487588	-0.9313071	1.1617507	-0.3222014	-1.0613315	-1.0478189	1.0060183	0.56657684	0.7457286	-1.0394082	-1.1599786	1.2335598
-0.17086774	-0.029031469	-0.6921011	-0.30739546	-0.43727428	0.7697334	-0.022089291	0.21790853	0.3516277	0.79346824	-0.33219263	-0.6462291	-0.25674552	-0.52970004	0.7676988	-0.030571025
-0.09599351	-0.13854589	-0.3379016	-0.21870202	-0.28782448	0.3248869	0.094965555	0.02596013	0.27938992	0.31400532	-0.27733183	-0.35713395	-0.05517421	-0.4210664	0.33522576	-0.34395856
-1.0752412	1.4275689	0.4347114	1.0989615	1.2524859	-1.1027862	-1.2876923	0.9028006	0.60851127	-0.981096	0.96687067	1.0435817	-1.0174811	1.1458167	-0.9957301	0.78084064
-0.07355	0.10378192	-0.13070916	0.021500425	0.026437504	0.10382057	-0.10261568	0.035742998	0.13524409	0.061223634	-0.06346959	-0.011672431	-0.056006536	-0.07895133	0.030104768	-0.17943725
-0.27265966	0.30909792	0.6889901	0.80760145	0.8438135	-0.9326817	-0.61965734	0.6543139	-0.2854839	-0.80691785	0.82792646	0.83364546	-0.48166847	0.8117719	-0.9217418	0.8730951
0.95613456	-0.321874	0.7131631	-0.44932088	-0.95859325	-0.28766772	0.98051846	-0.29991746	-0.8762798	-0.59291214	0.66638803	0.16830862	0.6599548	-0.7798311	-0.47572693	1.0053301
-0.280635	-0.20357436	-0.11153743	0.21146536	0.25520486	0.15957418	-0.2792477	0.3164562	0.3002466	0.18940352	-0.25567433	0.023794048	-0.3903495	0.003294055	0.058602277	-0.101135656
0.44976887	-0.30052724	0.47015697	-0.3780916	-0.6210136	-0.12888338	0.5418477	-0.23498765	-0.39374343	-0.28319702	0.25562182	0.013608712	0.33205542	-0.6062714	-0.23699205	0.38931727
-0.07576807	-0.24783099	0.21232013	-0.08742106	-0.072850995	-0.08396759	0.07108715	0.0824419	-0.0017267239	-0.053393647	-0.106958464	0.055149317	-0.09548087	-0.22504379	-0.1801581	-0.008257674
-0.64817953	0.59756494	0.002221606	0.6966835	0.7532874	-0.56216156	-0.8406798	0.6491224	0.3318138	-0.30553898	0.3922235	0.5664482	-0.67241347	0.6854001	-0.4518193	0.4708493
-0.67789	-0.6888199	-0.42229807	-0.2704174	0.08447902	0.3121639	-0.7106642	0.7621082	0.7799873	0.7623658	-0.80088866	-0.4484615	-0.7516884	-0.3718863	0.3516468	-0.611954
-0.47746125	-0.15911254	0.3212211	0.5366906	0.6634391	-0.49987066	-0.698897	0.5742218	0.22220619	-0.17395163	0.115129784	0.5028514	-0.5542797	0.4943957	-0.5397868	0.1660469
0.28845102	0.051166184	-0.033261117	-0.25013077	-0.3959984	0.17493494	0.31620306	-0.19814965	-0.121748075	-0.03896397	0.060387462	-0.09303212	0.26359007	-0.37144968	0.07328714	-0.03708344
0.12128964	-0.74077594	0.6998316	-0.17793714	-0.19754887	-0.5419897	0.15946208	0.20444177	-0.22410199	-0.316646	0.08783467	0.34204587	0.034490574	-0.40672377	-0.69304633	0.33658502
0.09304546	0.32232064	-0.16635191	0.16064827	0.09775486	0.11220207	0.012185375	-0.036759816	0.009339097	-0.057934225	0.14265074	0.060189348	0.04664976	0.04727898	0.077701434	-0.16173126
0.47670835	0.43161246	-0.16718288	0.008024201	-0.26852497	0.17993434	0.54994607	-0.52334815	-0.40816364	-0.5039731	0.4890708	0.10129508	0.45550242	-0.27403164	0.16220374	-0.24732895
-0.20988694	-0.11350934	-0.35254893	-0.18090002	-0.06749677	0.2695813	-0.2018325	0.22785781	0.25548318	0.50807804	-0.19567353	-0.35387886	-0.2825341	-0.10402205	0.2724673	-0.037754104
-0.18088582	0.06366162	-0.73545694	-0.19463895	-0.59899116	0.729939	-0.20795338	0.34934437	0.44777542	0.69308937	-0.46225205	-0.60874933	-0.3645749	-0.5792925	0.66265404	0.13238406
0.013702325	0.09108786	0.0557862	0.22785282	0.18670528	-0.08730399	-0.15555	0.16553147	-0.021612916	-0.097137325	0.18544926	0.19412056	-0.14535546	0.098899685	-0.15338327	0.21117584
0.11657664	0.5022685	-0.4341858	0.23504665	0.011196941	0.19433776	0.17717513	-0.181908	-0.0855351	-0.15025084	0.23623158	0.05710933	0.10223917	0.06529072	0.22686219	-0.0102967415
-0.67168957	0.8026598	0.41680676	0.9339726	0.9762776	-0.962178	-0.8552001	0.6613452	-0.04344575	-0.88521165	0.8407075	0.89803237	-0.65501755	0.90595275	-0.83889097	0.6368415
0.5091423	0.16324687	-0.5206697	-0.6167076	-1.1262172	0.844447	0.5536605	0.19881238	-0.023297561	0.79545015	-0.2738233	-0.8603894	0.008437885	-0.81081617	0.6817703	0.9634527
-0.14506778	0.11601102	-0.17111056	0.30357006	0.25874588	-0.122336194	-0.22477883	0.1195719	0.06383785	-0.1152765	0.010033097	0.25527194	-0.16720405	0.20179008	-0.05912487	-0.17676477
0.2193027	-0.10943073	0.45577857	0.16971807	0.123420015	-0.42212716	0.08433478	-0.07350799	-0.29508615	-0.4449482	0.26421762	0.3985772	0.07634903	-0.01449561	-0.43342748	0.18856734
0.07128138	0.2959937	0.121021844	0.3199104	0.28122827	-0.24725461	-0.05883241	-0.040633786	-0.22030789	-0.44417828	0.37564367	0.36984003	0.069676474	0.23847546	-0.24582464	0.10217124
-0.046485785	-0.15250725	0.382594	0.3589423	0.27136004	-0.36361426	-0.27268633	0.44606358	-0.16534333	-0.22377042	0.2658194	0.3129183	-0.28723264	0.25012147	-0.39177632	0.5938818
-0.3213563	-0.4659959	-0.09535492	-0.08080955	0.024974013	0.16952711	-0.3896646	0.5095082	0.3905863	0.37256247	-0.36755437	-0.1907302	-0.47218814	-0.1004772	0.11208604	0.026444416
0.09314018	0.4952416	-0.55952585	0.16362925	0.088054314	0.19683954	0.08149349	-0.189478	-0.010076572	-0.046925858	0.15123679	-0.0055736215	0.077289924	0.045013204	0.27864826	-0.23434559
0.2725444	0.16494696	0.047636922	-0.054327305	-0.22491229	0.09073722	0.26672193	-0.070814475	-0.2880482	-0.057420626	0.29547033	-0.095663875	0.1279775	-0.16131605	0.06605803	0.4693961
-0.19687122	0.035208248	-0.72896767	-0.071807705	-0.38999137	0.61884385	-0.14522511	0.32156518	0.37176943	0.5513405	-0.32974064	-0.5408263	-0.33785003	-0.49095032	0.63518816	0.14351656
0.38373137	0.021545704	0.33412126	0.11187614	-0.14492106	-0.12531255	0.23716399	-0.024674151	-0.39783823	-0.28028008	0.4049982	0.1143519	0.17762433	-0.019042388	-0.2590171	0.5592636
-0.47496828	0.38723424	-0.026991725	0.59618396	0.6698651	-0.49148744	-0.7085862	0.5647973	0.23833962	-0.17979157	0.2202702	0.48672044	-0.5403796	0.6971705	-0.36983836	0.3004331
-0.8765881	1.0941436	0.5063827	0.9627941	1.088173	-0.88888925	-1.0344619	0.79210925	0.18430203	-0.9109092	0.8713287	0.88380456	-0.9129949	1.0286236	-0.8129021	0.768463
-0.16884944	0.071599595	-0.2706243	0.1332124	-0.03962689	0.19749324	-0.2694757	0.2643013	0.28742716	0.24144189	-0.15272908	-0.15555635	-0.26043153	0.011944426	0.21483159	0.08599055
-0.24994929	-0.15849705	-0.07717592	0.1804862	0.29084843	-0.18005124	-0.36273152	0.34867448	0.22349426	0.033237673	-0.154549	0.19652356	-0.32622087	0.16866267	-0.12843998	-0.19366835
-0.31733346	-0.16975154	-0.26935747	-0.03919785	-0.04270943	0.2145634	-0.19986352	0.33282122	0.37914842	0.34252638	-0.33787736	-0.17152427	-0.29252702	-0.13157491	0.24732302	-0.08839307
0.66626155	0.90553355	-0.78017426	0.023303676	-0.3769394	0.4962393	0.78012806	-0.7152609	-0.54848784	-0.4959212	0.6476073	0.06167999	0.7470823	-0.5752077	0.6619823	-0.69977087
-0.37345785	-0.2627448	-0.25737715	0.023415225	0.17684332	0.18287176	-0.4235192	0.3587389	0.45095694	0.34507394	-0.38953823	-0.16874918	-0.4110302	0.032936633	0.16077442	-0.16313238
-0.4258603	0.49986327	-0.32502258	0.55476433	0.6681363	-0.13261965	-0.6271509	0.26802763	0.29016244	-0.1465115	0.08966945	0.33270478	-0.3704105	0.56372553	0.028603569	-0.20983961
-0.37293756	-0.16258503	-0.42154267	-0.19472401	0.08843374	0.30077785	-0.30109915	0.23474094	0.4470738	0.36447883	-0.4327668	-0.1969061	-0.34093264	-0.22156523	0.32239154	-0.5349887
0.17636478	0.2244814	-0.020882092	0.07012066	-0.035244543	0.070425786	0.09517169	-0.039871547	-0.10780177	-0.05136386	0.21940674	-0.022372928	0.014277412	0.002902991	0.017019056	0.29318133
-0.19107951	0.92002904	-0.021264143	0.61265117	0.56308585	-0.3768069	-0.48311105	0.18651903	-0.14612699	-0.5252276	0.7633828	0.536471	-0.28282157	0.67286056	-0.273254	0.47526205
0.42266625	0.5762413	-0.2750519	0.108814985	-0.16561092	0.18805768	0.50862104	-0.52830464	-0.31795952	-0.44257832	0.33920142	0.11341925	0.47311777	-0.32224303	0.2376049	-0.23649232
-0.36556786	-0.38043478	0.1807141	0.43733695	0.4735795	-0.31643206	-0.5586822	0.6263274	0.28336412	0.024967281	-0.058244318	0.3382843	-0.5298013	0.35402322	-0.31351256	0.13117413
-0.030050822	0.3050726	-0.39145985	0.19685072	0.003844729	0.25275242	-0.01990789	0.010587731	0.11416514	0.10961642	-0.044666443	-0.13187677	-0.023978416	0.04325963	0.28014046	-0.074177094
0.46346906	0.45141625	0.028397338	0.19915122	-0.059344087	-0.016189199	0.48014355	-0.39516097	-0.53357184	-0.4759731	0.5323071	0.29152924	0.49937743	-0.16180587	-0.047415774	0.110601485
0.7963868	-1.4008734	1.2324108	-0.9002305	-1.111212	-0.69177026	0.9519385	-0.06019617	-0.7718864	-0.7150831	0.6375354	0.3709514	0.5225133	-1.0183585	-0.9901142	0.97506696
0.031935636	-0.30441168	0.03637307	-0.22356534	-0.26394638	0.07889736	0.17688109	0.046161	0.027543271	0.06732063	-0.10916555	-0.15384394	0.061035134	-0.3277334	0.031218966	-0.05826442
0.09079652	0.2626188	-0.55542207	-0.2954522	-0.51307005	0.56023496	0.11470414	-0.011716291	0.15412904	0.44138622	-0.2595808	-0.5564837	-0.035478864	-0.43463975	0.6278289	0.12893781
-0.22430377	-0.5736789	0.1274107	-0.3239344	-0.2540484	0.036446474	-0.028704755	0.2632416	0.18190214	0.26080436	-0.3075211	-0.15744598	-0.18774627	-0.42073256	0.02283547	-0.09283026
0.3198004	0.27603525	-0.4843546	-0.50511116	-0.8855383	0.6234635	0.5792944	-0.18409893	-0.08149147	0.44014305	-0.09252107	-0.63324916	0.20489702	-0.7423372	0.5536553	0.54305124
-0.38174286	0.14473906	-0.12805033	0.48710832	0.5280064	-0.19586948	-0.56933665	0.4360615	0.20502886	0.012936289	0.09225655	0.19865976	-0.46627647	0.45413464	-0.15302996	0.22209042
-0.13279338	-0.12707315	0.1690611	0.29434016	0.24715734	-0.25219738	-0.19260582	0.23633234	0.041677	-0.12101258	0.05487562	0.2900844	-0.19337402	0.2196521	-0.2511082	0.050456926
-0.11394158	0.25067008	-0.45278755	0.023305114	0.011039819	0.25254124	-0.24039282	0.104716964	0.20940359	0.28569925	-0.15095711	-0.2700016	-0.1803578	0.050141297	0.32884526	0.005589976
-0.7214096	-0.37604845	-0.54064107	0.088619225	0.37814942	0.12750053	-0.7622099	0.53648454	0.6366155	0.44534078	-0.51786953	-0.1407864	-0.6881342	0.1900791	0.19887178	-0.49103346
-0.050191995	-0.13464905	0.039238844	0.103292875	0.038275555	-0.1217481	0.048430625	-0.0635346	0.05425416	-0.18669702	-0.04226036	0.17675991	-0.026728468	-0.16588917	-0.17131451	-0.19030055
-0.48862246	-0.13863096	-0.34767023	0.17697985	0.34648246	0.13408737	-0.46640468	0.39445877	0.4458575	0.3216372	-0.29755795	-0.001618472	-0.5281817	0.11592354	0.16706493	-0.28599787
-0.56643397	-0.8457032	0.06065816	-0.115315266	0.13112836	0.08485158	-0.5831583	0.64040494	0.5589274	0.47828412	-0.62048054	-0.03602804	-0.5873273	-0.32167256	-0.085359335	-0.47846285
-0.48507953	-0.49412325	-0.22944717	-0.18826956	-0.08908894	0.27490863	-0.30609354	0.45894706	0.44990742	0.44741142	-0.45606494	-0.2695325	-0.43078268	-0.1649584	0.18884005	-0.2577089
0.23485966	0.120339096	-0.16874734	-0.20642598	-0.47678882	0.27377036	0.4355664	-0.19331732	-0.17706867	-0.07395109	0.009987031	-0.22279309	0.26327938	-0.531506	0.20927098	0.002785852
-0.38596475	-0.8035271	0.2989153	-0.25414494	-0.036016323	-0.02067384	-0.29089686	0.54676414	0.41064876	0.40947822	-0.48932022	-0.13665731	-0.46516976	-0.35909992	-0.15475418	-0.18684797
-0.5403247	1.2127529	0.6747119	0.9589288	1.0424795	-0.9322884	-0.8408432	0.59717613	-0.11559714	-0.9653272	0.92159164	0.9068313	-0.6199232	1.0218625	-0.9322917	0.8574763
0.0031602895	0.1862943	-0.37854156	0.04747541	0.06713489	0.20744714	-0.006931667	-0.024263628	0.043381043	0.08909165	-0.021600863	-0.080437586	0.018990923	-0.052328594	0.24494345	-0.19975804
0.5624076	0.038695846	0.46580046	-0.42206374	-0.6047004	-0.1705548	0.7323796	-0.4265426	-0.5920315	-0.6263323	0.33765632	0.23102564	0.5298766	-0.713781	-0.31752682	0.121701136
0.079921864	0.24035373	0.057146974	0.21836273	0.095158584	-0.12898773	-0.004759259	0.05526332	-0.094151706	-0.17709161	0.30031812	0.22679889	0.0110151125	0.12332068	-0.073780075	0.24196188
0.027744038	0.286347	-0.5053644	-0.43853462	-0.5716996	0.5386789	0.17754713	-0.114822425	0.19401503	0.43590754	-0.2956699	-0.5431216	0.0718774	-0.448962	0.58711594	-0.100844756
0.24241038	0.6398009	-1.0521501	-0.5185785	-0.85168755	0.9367699	0.3163264	-0.035432838	0.22617961	0.8171511	-0.28005117	-0.8920554	-0.009521093	-0.62491304	1.0025318	0.5483315
0.8638014	1.0171129	-0.7013693	0.2106838	-0.37164676	0.38602304	1.0468277	-0.825942	-0.91601175	-0.965799	1.0622917	0.41773233	0.8518561	-0.5691532	0.4440623	-0.5793852
-0.39420912	-0.75804144	0.21882252	-0.059913173	0.20414306	-0.1495943	-0.48274216	0.66462344	0.3900101	0.24588086	-0.4221169	-0.03460322	-0.5513575	0.046395667	-0.2157195	-0.057442855
-0.33747205	-0.14012699	-0.14793873	0.2945198	0.408457	-0.11401998	-0.29059178	0.22462066	0.28232282	0.014275056	-0.1537504	0.26448238	-0.29934224	0.19111061	-0.0731727	-0.32827836
-0.05835755	0.25756857	0.18393704	0.47795868	0.5447891	-0.34308782	-0.31583565	0.30503657	-0.16564341	-0.32893446	0.4215345	0.42778063	-0.19142044	0.48865512	-0.36706087	0.54953754
0.010745378	0.062447	-0.12706417	-0.014256931	-0.036388494	0.18435225	0.039400514	-0.036930695	0.06871904	0.09745512	-0.06071879	-0.10427999	0.051468786	-0.20221582	0.16834393	-0.09882024
-0.1558285	0.21027847	-0.4490485	0.10530489	0.19469176	0.17598641	-0.01778667	-0.11952152	0.08881499	-0.046472643	-0.075956166	0.09576344	-0.038733352	-0.08648438	0.18743871	-0.55455744
-0.25487483	-0.19381493	-0.038937006	0.09695999	0.17165053	-0.013908461	-0.19191945	0.21830252	0.23038529	0.093848504	-0.22071946	0.036314104	-0.25083035	0.043411687	0.028531946	-0.33173278
0.831996	0.59280556	0.03531617	-0.056835763	-0.56390727	0.093430005	0.9417401	-0.62792253	-0.7721155	-0.5807975	0.757824	0.16414052	0.78998387	-0.6204605	-0.004357713	0.0012927013
0.03663345	0.21667387	-0.6401997	-0.43287122	-0.5431836	0.66547805	0.21832198	-0.06688819	0.20329598	0.4974904	-0.35583892	-0.5656908	0.056495287	-0.546077	0.6412938	-0.21604021
0.63396853	0.57322454	0.15122777	0.19615898	-0.06148049	-0.057764675	0.40007392	-0.38759676	-0.68106794	-0.74213994	0.9328945	0.27511448	0.503936	-0.0244284	-0.100087985	0.16061154
-0.2725035	0.17209549	-0.876179	-0.20439708	-0.49151638	0.77682215	-0.33996814	0.5604752	0.61294335	0.85053635	-0.5441075	-0.8308562	-0.6263665	-0.3798989	0.8802965	0.39000955
-0.055569224	0.22211646	-0.9114397	-0.7206391	-1.0161977	0.95839053	0.1143999	0.08165036	0.49317238	0.9488315	-0.6464228	-1.0339283	-0.22187811	-0.7126749	0.99984795	0.32748514
0.95860803	1.1225891	-0.5606903	-0.057278384	-0.6595244	0.3615001	1.1518706	-1.018263	-0.89347214	-0.8700708	1.0355344	0.26782057	1.0425477	-0.6715446	0.43428427	-0.45709845
-0.42073655	0.03719566	-0.6872296	-0.14405344	-0.15368703	0.5814561	-0.49468973	0.41296837	0.63739336	0.6054671	-0.45767355	-0.5259674	-0.47739115	-0.04784089	0.650476	-0.19532697
-0.024796806	-0.28665152	0.08893764	-0.11077681	-0.16463464	0.109688	-0.105742715	0.3848401	0.122479245	0.3033675	-0.19352126	-0.17602733	-0.24287204	-0.16348375	0.033774205	0.3205905
-0.03782231	0.24182007	-0.3745752	-0.16531661	-0.28964263	0.41292477	0.11921308	0.116605885	0.072128676	0.38514885	-0.08310172	-0.39767066	-0.09806619	-0.20208606	0.4397461	0.33735737
-0.049033873	-0.024801917	-0.39425603	-0.26541552	-0.52769446	0.5209246	0.07334913	-0.00926849	0.19819772	0.38557738	-0.23821028	-0.4513474	-0.050304465	-0.5126604	0.521199	-0.007333112
-0.113327734	-0.028305134	0.16800344	0.31364548	0.24339135	-0.23706134	-0.17715506	0.15134442	-0.003122602	-0.19101062	0.15648898	0.28903887	-0.21844377	0.20516185	-0.33646291	0.03507383
-0.6295703	-1.003603	0.29963708	-0.19433257	0.22774418	-0.2756305	-0.5363513	0.5842924	0.47190166	0.27589417	-0.561782	0.11585133	-0.5293015	-0.33396068	-0.3102888	-0.6468241
-0.22135198	0.2813026	0.36907285	0.59566414	0.68510276	-0.6331212	-0.59080076	0.49471644	-0.01727231	-0.55956644	0.56369245	0.5811445	-0.39473194	0.5425872	-0.627362	0.5030269
-0.36664286	0.078699626	0.28531277	0.6138006	0.76077336	-0.6363456	-0.7097264	0.6040139	0.14897296	-0.46251494	0.30594516	0.64014894	-0.5772808	0.6093106	-0.5547595	0.39241627
-0.3054574	-0.47222292	0.63488543	0.48464397	0.55209947	-0.7205492	-0.667525	0.73885715	0.028414285	-0.33154997	0.19043319	0.541913	-0.624818	0.53830767	-0.78036505	0.48016047
0.015332183	-0.3721965	-0.09448684	-0.39919496	-0.49785498	0.3584762	0.2268008	0.045919873	0.12139431	0.3379632	-0.2694184	-0.39758712	0.03337637	-0.45529646	0.22139922	0.083396524
-0.16593371	0.012906204	0.21744154	0.3539344	0.41019452	-0.47781387	-0.28697333	0.22536404	-0.07895602	-0.29477662	0.27540407	0.41372418	-0.20477106	0.38271925	-0.46130344	0.14181946
-0.248285	0.03445406	-0.20462759	0.24798614	0.15301073	0.044846512	-0.239068	0.20776539	0.20335338	0.1251242	0.010324653	0.030510291	-0.2554006	0.20113404	0.058807313	0.0062057716
0.04995084	0.2490547	-0.10371779	0.2531623	0.19559461	-0.081192985	0.050467346	-0.07635814	-0.06364119	-0.2458715	0.18880701	0.29744473	0.031423688	0.11636522	-0.05778836	-0.13145714
0.015341276	0.15272324	-0.12951612	0.113294005	0.106113724	-0.022615505	0.023437679	-0.113174714	0.048882168	-0.122152574	0.057685155	0.20611951	-0.009299115	-0.049538665	-0.0073308432	-0.25221583
-0.035769507	-0.15817668	-0.075111516	-0.12434884	-0.17649291	0.17753746	-0.11160368	0.32484287	0.08643776	0.35766402	-0.09548558	-0.26147643	-0.22324331	-0.113034934	0.15855134	0.41229105
-0.512772	0.10014118	0.10063915	0.59738	0.65576595	-0.46118322	-0.6927219	0.48555768	0.29929072	-0.17562997	0.09061868	0.5545885	-0.5498746	0.574858	-0.40662724	0.13873973
0.47551042	0.64701605	-0.5064545	-0.042342696	-0.5509915	0.4802181	0.5847422	-0.4766632	-0.3893988	-0.10907933	0.3105184	-0.26497772	0.43046647	-0.50226814	0.4506877	0.052772146
-0.028242841	-0.35804257	0.53302556	0.22439678	0.18556362	-0.4215176	-0.16276285	0.2327701	-0.021910978	-0.33334512	0.07196001	0.36127645	-0.18760566	0.057825085	-0.5675211	0.20749006
-0.75377333	-1.2145149	0.06984843	-0.5581304	-0.0046444116	0.06504519	-0.7486745	0.89932144	0.79363674	0.6882452	-0.93035996	-0.39446303	-0.7572035	-0.63609415	0.002429207	-0.76235044
0.06576762	0.22744857	-0.5344863	-0.14966644	-0.2387359	0.4746904	0.18615036	-0.07654275	0.06696689	0.20450254	-0.10157244	-0.3246604	0.012012921	-0.3036891	0.45185572	-0.09958141
-0.035895865	0.16098022	-0.55456114	-0.04588873	-0.101856954	0.27811313	0.064562835	-0.20303346	0.13742264	-0.03507883	-0.024265008	-0.02075466	0.09575105	-0.18212327	0.30442724	-0.54079044
-1.08614	-1.4762074	0.022100963	-0.011048316	0.67881334	-0.2784566	-1.2389299	1.3518622	0.97824335	0.59798074	-1.0165437	0.20646487	-1.1699001	-0.098175414	-0.3190169	-0.94600224
-0.019245824	0.35027903	-0.5923005	0.18504083	0.004665974	0.3095769	0.0420115	-0.095577575	0.107611135	0.039245203	-0.005692966	-0.051088765	0.051037032	-0.13176958	0.3600927	-0.30426842
-0.11117149	0.28496084	0.2387264	0.40983918	0.47448042	-0.41472825	-0.3152847	0.26969242	-0.17210796	-0.5140423	0.50760466	0.42508906	-0.26497778	0.36848107	-0.4529187	0.3807588
-0.11092224	-0.6745981	0.28592357	-0.40976024	-0.2763052	-0.14090754	0.04763991	0.17041776	0.13189532	0.027890697	-0.24971956	-0.020956377	-0.14942935	-0.56201875	-0.23946346	-0.07710399
0.3126457	0.38838184	-0.30865413	-0.21498035	-0.44283715	0.4215784	0.46521407	-0.25694597	-0.19417876	0.07127622	0.0829754	-0.35661975	0.2770454	-0.43063727	0.44779596	0.08902044
0.66476715	-0.80873084	0.8783882	-0.66065013	-0.7972008	-0.48469085	0.75918543	-0.12762815	-0.6466398	-0.6043456	0.60635346	0.22648884	0.42446372	-0.7176156	-0.7150769	0.8219766
-0.4541573	-0.36860615	-0.29873067	-0.0988682	0.104842484	0.19794135	-0.396075	0.2941623	0.505043	0.38971394	-0.44911385	-0.11247508	-0.37489066	-0.0931872	0.21944347	-0.46343252
0.27873373	0.04170168	0.18134174	-0.0026295928	-0.23257597	-0.030667016	0.3804977	-0.1646246	-0.29294786	-0.3115276	0.26527646	0.10474933	0.2948125	-0.34384155	-0.108731136	0.21442105
0.36592725	0.1739484	0.11753179	-0.11720638	-0.26101807	-0.046974402	0.48098686	-0.37741065	-0.29355028	-0.38618797	0.2355327	0.18134302	0.3539914	-0.34958014	-0.10583333	-0.15204367
-0.07464547	-0.5924224	0.29186776	-0.09314597	-0.11281661	-0.065326266	-0.13581689	0.542988	-0.022537934	0.1416559	-0.13453059	-0.15286577	-0.2574442	-0.13615456	-0.11847805	0.4901772
-0.6252171	-0.6843987	0.12000491	0.345555	0.66534746	-0.45245117	-0.5979191	0.51328194	0.47872257	0.02161155	-0.38630164	0.59225434	-0.5694881	0.17603572	-0.4903092	-0.704044
0.23549911	0.39256954	0.10266128	0.2593825	0.096385054	-0.16460238	0.059006646	-0.13838762	-0.2987835	-0.39761922	0.44845048	0.26429132	0.13947834	0.10620244	-0.19451462	0.19515115
0.98504007	1.125562	-0.7060758	0.21794364	-0.3494526	0.25684676	1.1440773	-0.99009395	-0.98649025	-0.98934036	1.0184437	0.40522808	1.0164231	-0.6556334	0.3306827	-0.6416056
-0.32893685	0.88978475	-0.20744832	0.62099385	0.5592852	-0.34530893	-0.46202093	0.2272798	0.051493283	-0.3520643	0.7284603	0.44123688	-0.3513103	0.5989064	-0.18818423	0.42213562
0.10815984	0.47879118	-0.54601765	0.090730056	-0.03663642	0.34923452	0.15670538	-0.1509578	-0.0579251	0.073925056	0.14710686	-0.12310035	0.06806289	0.025346227	0.36590347	-0.07215859
0.07425676	-0.39834252	0.42196316	-0.06506144	-0.06227889	-0.22507715	-0.117344044	0.22203079	-0.11987739	-0.042105902	0.121885136	0.016419921	-0.16539171	0.0037292126	-0.30422762	0.468249
-0.14476883	-0.31679496	0.09452603	-0.053816453	0.046184435	-0.07493099	-0.11238688	0.25464678	0.14021961	0.06871076	-0.18289056	0.0656142	-0.17464702	-0.07594789	-0.08964156	-0.12701905
-0.37224534	-0.3700643	-0.34352577	-0.14894877	-0.04203229	0.30603185	-0.3345395	0.51058596	0.5028884	0.57172024	-0.43353957	-0.34514692	-0.48351347	-0.07789455	0.26273385	-0.051195644
0.7394364	0.10724971	0.5567142	-0.19756566	-0.53748643	-0.26663652	0.8258734	-0.41278127	-0.7803952	-0.75593513	0.7232358	0.4264041	0.62167585	-0.67718995	-0.39655536	0.43404126
-0.054770626	-0.17532085	-0.062991336	0.026932577	-0.051726118	0.06253386	-0.09911448	0.18843545	0.12228348	0.16394393	-0.12051703	-0.1323497	-0.19951035	-0.057831846	0.09718359	0.029414747
-0.5007093	-1.0260257	0.5157701	-0.0032952735	0.34512046	-0.39918137	-0.6338089	0.8052031	0.3901939	0.19067115	-0.4460779	0.15806663	-0.6507139	0.025841204	-0.5153321	-0.16451909
0.6356898	0.65287673	-0.31391042	0.11194866	-0.32873136	0.14894128	0.8399119	-0.5784745	-0.68180776	-0.6851038	0.7382868	0.36025703	0.64282185	-0.5399728	0.19759667	-0.25353637
0.08371713	0.6627957	-0.4026843	0.27799073	0.23085997	0.039511625	0.0053335256	-0.18811594	-0.15739168	-0.28083155	0.39172062	0.13882893	0.14864668	0.16494371	0.12299667	-0.16310939
0.30167544	-0.38683495	-0.07496592	-0.80525637	-1.1015358	0.56660914	0.37757528	0.22070503	0.013578805	0.6718397	-0.35480148	-0.8136698	-0.029196499	-0.7819699	0.42326415	0.7992306
0.75963634	-0.004170229	0.45303732	-0.28165197	-0.43587264	-0.116643034	0.6865261	-0.46079695	-0.7680402	-0.80380625	0.8471424	0.060292833	0.61174136	-0.36445424	-0.2538788	0.3444206
-0.20699416	-0.015662014	-0.58482474	-0.13832982	-0.15649775	0.5156957	-0.096344866	0.21814688	0.40873346	0.5442026	-0.39427364	-0.50222653	-0.28078252	-0.2780616	0.47983158	-0.19533978
-0.31926072	-0.16388501	-0.4862331	-0.048619132	0.017172383	0.23002994	-0.18395747	0.165106	0.32158282	0.23942746	-0.34912595	-0.14488964	-0.29833844	-0.25530055	0.2242733	-0.42559355
-0.12709741	0.10299145	-0.59012365	0.006192938	-0.023237104	0.36066452	0.026015788	-0.050542347	0.17114657	0.089766376	-0.13962634	-0.11345689	-0.043717034	-0.3710199	0.35687175	-0.4016547
-0.48166296	-0.8188414	0.28488836	0.010707315	0.38612434	-0.38107806	-0.46943578	0.59167826	0.44857422	0.24358897	-0.47468445	0.12635148	-0.5033989	-0.037834067	-0.43148372	-0.36478606
-0.0036389283	0.1430411	-0.5726514	-0.04181017	-0.5849132	0.6048516	-0.028631154	0.28376314	0.20810638	0.5209528	-0.2529992	-0.5701396	-0.25858346	-0.5131331	0.5725317	0.38460153
-0.5718617	0.48096606	0.2154599	0.61761665	0.7633961	-0.5942822	-0.8034511	0.54817253	0.15519091	-0.42340395	0.4278339	0.59488314	-0.5758817	0.6562592	-0.5511857	0.3332672
-0.0048455037	-0.20432986	0.2219511	0.010406911	0.050681565	-0.16899733	0.067707956	-0.03335983	0.0068040127	-0.2522489	0.013726285	0.24286312	0.0719889	-0.1752202	-0.20345227	-0.17754939
0.054768953	-0.23112193	0.11336138	-0.20049213	-0.2989643	0.11146676	0.08811956	0.062275797	-0.026477259	0.025312327	-0.124131925	-0.04985983	-0.038588934	-0.40001008	-0.05657785	0.030774271
-0.21515496	-0.05548102	-0.12246913	0.11600857	0.096242085	0.12243932	-0.35784757	0.42304984	0.18470345	0.28003988	-0.11375098	-0.19655356	-0.2858565	0.17618755	0.12536947	0.32360914
-0.741238	-0.770458	0.1494414	0.19076183	0.5490775	-0.22881666	-0.86611205	0.8362408	0.59974855	0.36800218	-0.6041905	0.23169051	-0.7711493	0.15494123	-0.26935858	-0.6581328
0.0075176526	-0.2415013	0.3718672	0.108907916	0.15743841	-0.29898113	-0.14283054	0.19573681	-0.090755805	-0.23264837	0.115375824	0.2404503	-0.070187554	0.07851098	-0.42165047	0.1828315
0.79095674	-1.3816731	1.3710744	-0.9477525	-1.1575881	-0.80857944	0.9565652	-0.022110855	-0.92298406	-0.8407153	0.663908	0.5262501	0.49007398	-0.937293	-1.1739148	1.2762121
0.975855	1.1229975	-0.818312	0.015701145	-0.47717097	0.5569643	1.0991404	-1.0096579	-0.85263807	-0.86905515	0.98986125	0.21807845	1.0254495	-0.80877304	0.57528985	-0.81694716
0.17061885	-0.3179136	0.31635037	0.009511215	-0.09759488	-0.18373407	0.10993181	0.15199324	-0.13578181	-0.05531948	0.027310614	0.038184017	-0.019250767	-0.13533896	-0.24565029	0.46632636
0.09470878	0.16301736	-0.2635189	-0.23498368	-0.39187256	0.33369213	0.16350166	-0.06903984	0.05046584	0.29786298	-0.054188024	-0.36425418	0.021241419	-0.36302888	0.34640047	-0.0059913853
-0.17329602	-0.013230879	-0.18007764	0.28614515	0.29263276	-0.07208577	-0.10190288	0.011476597	0.14624004	-0.15450725	-0.0950256	0.28129166	-0.13696611	0.010152312	-0.057351418	-0.56144476
-0.0698762	0.61640024	-0.58913374	0.23741981	0.1873603	0.17251346	-0.24107145	0.12950514	0.13693099	0.16015989	0.16172521	-0.053945515	-0.2424962	0.25009984	0.33947757	0.23854871
0.2921887	-0.22125384	0.3531836	-0.05852077	-0.21119592	-0.113657355	0.3339515	-0.12974557	-0.28657395	-0.15308982	0.15109357	0.028864691	0.22605227	-0.15657333	-0.2397081	0.43373093
0.34381524	0.56268173	-0.6801519	-0.33007914	-0.8854592	0.64050573	0.4352184	-0.3423163	-0.16681476	0.15045841	0.07909928	-0.4327436	0.25721315	-0.6783391	0.68947864	-0.110321276
-0.031888444	-0.33684653	0.24205734	0.06658803	0.036382217	-0.081878066	0.017621217	0.22144745	-0.05578736	-0.05700932	-0.0034485315	0.030434635	-0.11675111	-0.09865071	-0.11866144	0.17302343
-0.6108938	-0.78938603	0.061990436	-0.04641364	0.1877158	-0.003479574	-0.5748775	0.56744874	0.510253	0.2647378	-0.5760891	0.043871965	-0.54208535	-0.28667724	-0.078207806	-0.67346126
-0.10653242	-0.14823405	-0.00062594464	-0.024633655	0.04542561	0.055094447	-0.20627162	0.34772542	0.15508185	0.3160306	-0.08551664	-0.18390074	-0.24599805	0.05117485	0.10741256	0.30160987
-0.340536	-0.21085645	-0.44427636	-0.22902076	0.09715814	0.15933724	-0.16947637	0.04152649	0.30319667	0.0038356043	-0.37250802	0.09978853	-0.21487762	-0.41438106	0.21544585	-0.9264698
-0.08508134	0.18397738	0.017900323	0.35446212	0.2906117	-0.15260088	-0.20644179	0.094553165	-0.036402494	-0.09713786	0.14018553	0.24416064	-0.098456725	0.23732953	-0.13936222	0.1726265
0.03261123	0.09989729	-0.54221684	-0.45903695	-0.5778062	0.591077	0.19179104	-0.10968537	0.16722906	0.36890122	-0.26789787	-0.45237237	0.06136655	-0.6896892	0.58038414	-0.31530848
-0.22164246	-0.5218535	0.18384081	-0.21217293	-0.1184477	-0.00049179356	-0.16188791	0.36784056	0.23106852	0.22136585	-0.42973486	-0.11122124	-0.28056222	-0.21181114	-0.041878212	-0.060908124
-0.4652044	-0.6514293	-0.081251	-0.027746666	0.11396831	0.11679958	-0.47046894	0.64359623	0.46926492	0.5136686	-0.4622033	-0.20438793	-0.61460996	-0.03570771	0.107633	-0.13135047
-0.080721475	0.1217426	-0.46104074	-0.15398073	-0.14514308	0.36306658	0.052097593	-0.118799455	0.19410689	0.22988324	-0.20992278	-0.26993325	0.022689188	-0.38317204	0.35283753	-0.4445288
0.39603168	0.39834154	-0.22372632	-0.21639253	-0.46609667	0.35743427	0.55548584	-0.4298526	-0.33359265	-0.11819655	0.24902618	-0.25126138	0.44006607	-0.39356107	0.30543804	-0.12652802
0.48369172	-0.5922266	0.7233249	-0.4562412	-0.58679664	-0.22583319	0.47084314	-0.023321765	-0.4625861	-0.23498683	0.17940877	-0.013841133	0.29568577	-0.5653142	-0.43507147	0.6024104
0.40224582	0.6197308	-0.62436074	0.27780372	-0.08919214	0.16579397	0.57657504	-0.51508194	-0.43265054	-0.4600848	0.44695142	0.2532989	0.45508716	-0.4646658	0.30506578	-0.50524366
-0.05060706	0.08909556	0.21532431	0.35093382	0.36470723	-0.39822462	-0.23385483	0.19562204	-0.120104544	-0.25124973	0.20238835	0.41863865	-0.15233988	0.26737258	-0.39309964	0.20333892
0.321402	0.18402642	-0.1271499	-0.3203133	-0.6369407	0.39620152	0.4515633	-0.21196641	-0.24100709	0.2441575	0.11136801	-0.3471134	0.2644739	-0.37090048	0.3402588	0.43034744
0.17342825	-0.029750288	0.20085075	0.003872985	-0.11822883	-0.07957815	0.13687608	0.13333881	-0.22265816	-0.08659128	0.21475245	0.078923024	0.016155418	-0.01267275	-0.13215862	0.48803484
-0.033815354	0.19521174	-0.3600147	-0.01341503	-0.09122299	0.23235445	-0.09272577	0.08973273	0.11956111	0.2192976	-0.10345237	-0.21543688	-0.068176515	-0.02511186	0.2732318	-0.0062543047
0.64278346	-0.96634674	1.1189022	-0.5568524	-0.677925	-0.743672	0.67266095	-0.053063452	-0.6859868	-0.63024944	0.47503838	0.49134398	0.41055414	-0.73329985	-0.968425	0.8654024
0.09553913	0.06273145	-0.30168253	-0.32872692	-0.52751976	0.4863962	0.23323496	-0.02138964	0.102941446	0.3854992	-0.21708412	-0.42292556	0.021501012	-0.41964224	0.46214715	0.15519525
0.9637878	1.2089957	-0.95510596	0.20405383	-0.42673728	0.43988806	1.0648615	-0.96079725	-0.9375613	-0.9539537	1.0364206	0.46749482	0.9250475	-0.67473006	0.5806864	-0.82715726
0.09055407	0.7811534	-0.9144141	-0.34889036	-0.8283802	0.9163425	0.12594843	0.18769741	0.4141538	0.78029925	-0.38564122	-0.85097414	-0.16078195	-0.478257	0.9406681	0.7443365
-0.67091167	0.41922024	0.043888498	0.70484126	0.9477842	-0.69700074	-0.89936376	0.57734334	0.28848764	-0.38908663	0.36507678	0.7105259	-0.67894685	0.750025	-0.59630525	0.24745412
-0.057828452	0.10312772	-0.29738003	0.22616313	0.027572853	0.15571833	-0.0083648665	0.015150637	0.080031335	0.030915804	0.0047689914	-0.03797962	0.008159844	-0.09144167	0.14215575	-0.28137904
-0.7377255	-0.69767123	-0.32564372	-0.16258141	0.16899766	0.20340769	-0.7196852	0.67271316	0.7370482	0.6356648	-0.6637131	-0.23326792	-0.7226646	-0.1609598	0.1835621	-0.6268367
0.5484601	0.5817326	-0.33871302	0.23637298	-0.21470933	0.1712723	0.62022907	-0.48236358	-0.5010139	-0.34055176	0.50330526	0.0838145	0.46409193	-0.49944916	0.21336785	0.08771823
0.22374755	0.5786017	-0.30029586	0.14466615	-0.0021233466	0.19591321	0.13059412	-0.09667592	-0.1453784	0.0065087616	0.29173604	-0.05286481	0.14268292	0.054894853	0.24814428	0.2089241
-0.26280862	-0.034764174	-0.45431224	-0.108388655	-0.080443054	0.36293015	-0.19817422	0.20752127	0.37785777	0.41530648	-0.29337895	-0.34973833	-0.2899782	-0.01631149	0.35000724	-0.07357411
0.11068297	0.4151008	-0.5138132	0.061563186	-0.11968908	0.29742327	0.06704535	-0.030170342	0.027396156	0.21941793	0.06870846	-0.28808847	0.030885661	0.0077750906	0.43683255	0.20920455
0.6226423	-0.38420314	0.79129297	-0.22643863	-0.48779425	-0.50331986	0.677595	-0.19772679	-0.689824	-0.6082147	0.508044	0.43413666	0.50967604	-0.54844403	-0.58084166	0.5647992
-0.4130048	-1.1341352	0.39916846	-0.5195904	-0.0339334	-0.09646515	-0.32455546	0.5596662	0.3763558	0.29816717	-0.55241776	-0.15292093	-0.4548156	-0.6549386	-0.31100515	-0.35056672
-0.13117634	-0.023625068	-0.27228382	0.000254751	-0.04524011	0.2765857	-0.12563482	0.108520046	0.24155387	0.27862367	-0.27710083	-0.17499918	-0.15886745	-0.057061944	0.23577915	-0.22386749
0.19098943	0.6692979	-0.89979553	-0.40583733	-0.9574521	0.8326544	0.08689339	0.43865705	0.46967015	0.8907719	-0.39936954	-0.8710158	-0.2881949	-0.66690296	0.873013	0.7859448
0.80972457	0.7242905	-0.17852798	-0.3199868	-0.68329686	0.28089038	0.974077	-0.79477036	-0.7418656	-0.57205486	0.81324226	-0.028131166	0.82876354	-0.7265306	0.33045182	-0.22926423
0.2621007	0.38247463	0.049517773	0.41245726	0.28938457	-0.36511737	0.26276314	-0.30345345	-0.33066073	-0.6370941	0.46076494	0.54802024	0.23453528	0.15285441	-0.29172468	-0.11033872
-0.45748976	-0.35494223	0.105370335	0.15698604	0.34424463	-0.1687811	-0.49222732	0.576582	0.3608706	0.24355525	-0.2436038	0.048006047	-0.50925696	0.18789893	-0.09983198	0.017840631
-0.41756395	-0.25072756	-0.071256556	0.32620212	0.50797343	-0.2708207	-0.49988696	0.41497052	0.3601946	0.016494183	-0.20154811	0.30775255	-0.39827967	0.24678585	-0.2565074	-0.31999236
-0.43443766	-0.31291264	0.17036204	0.31621873	0.54820424	-0.4196934	-0.5255883	0.53900427	0.34002757	-0.02631807	-0.12629427	0.43827176	-0.5408902	0.3757008	-0.37584552	-0.06465569
-0.36706445	-0.08969225	-0.2562111	0.101458386	0.267806	0.010662343	-0.3320959	0.2661652	0.34887677	0.19891037	-0.2880256	-0.03270028	-0.35971525	0.17604265	0.09066673	-0.3516798
0.08097078	-0.038836047	0.5864433	0.4337773	0.4791164	-0.67384875	-0.2581372	0.18319388	-0.3727289	-0.6574179	0.61539024	0.685229	-0.07359691	0.49568775	-0.6730732	0.45016307
0.96901256	1.2023757	-0.8693187	0.16276766	-0.4202397	0.44905728	1.1686504	-1.0256864	-0.93174666	-0.8963335	1.0400405	0.42151847	0.97335166	-0.6840489	0.5627932	-0.77962714
-0.24907447	-0.08495552	-0.5704694	-0.12439078	-0.09655257	0.32403126	-0.09216466	0.14783144	0.33681652	0.3277971	-0.32997945	-0.23151723	-0.16660252	-0.21099597	0.3883008	-0.4904243
0.8157068	-1.2592336	1.1440696	-0.8564974	-1.0678463	-0.74760044	1.0135003	-0.14685719	-0.8722768	-0.87621933	0.7563655	0.58110386	0.5814741	-0.9002371	-0.97713053	1.0324165
-0.16657917	-0.06948376	-0.31647652	-0.09731917	-0.11719175	0.26591876	-0.12903962	0.15624686	0.2603419	0.27695876	-0.21479534	-0.14237879	-0.11332624	-0.16284776	0.3054917	-0.09646622
-0.3157914	0.31620103	0.08834503	0.35816804	0.3776776	-0.2778157	-0.48689014	0.37426242	0.08531522	-0.1561589	0.28365654	0.26971668	-0.4612042	0.39144942	-0.23787676	0.50622135
0.056251194	-0.20643844	0.12822267	-0.1791979	-0.3255749	0.062300213	0.19455408	-0.01369806	-0.018011138	0.07000132	-0.059857834	-0.14976135	0.04006816	-0.3368163	-0.025687011	0.20359871
-1.0910326	-1.1233572	0.2885233	0.33293387	0.88696563	-0.4308616	-1.2387046	1.176654	0.91014665	0.46582448	-0.86311316	0.39947352	-1.114353	0.26110005	-0.46505576	-0.8800262
-0.20273615	0.14924066	-0.8863598	-0.52474695	-0.56626993	0.74607474	0.059871916	0.11135416	0.3719056	0.84715253	-0.49015146	-0.7970751	-0.28772387	-0.5037691	0.75901526	0.06222014
0.26512232	0.844359	-0.5435436	-0.0010667145	-0.26174936	0.42656004	0.24357323	-0.12221289	-0.102801904	0.36504015	0.14023457	-0.4135019	0.098329484	0.03883195	0.46812108	0.61795706
0.06143924	-0.14100392	0.0052234917	-0.29082155	-0.24631636	0.21701542	0.10658495	-0.026493864	0.018614093	0.11251206	-0.15156706	-0.1926387	0.057970412	-0.41009203	0.17164741	-0.0046769083
-0.035070207	0.035246756	-0.44948748	-0.29847872	-0.38092342	0.44705662	0.08853927	0.07436108	0.17035572	0.35485145	-0.27184233	-0.45218903	-0.12057712	-0.37567303	0.49378142	-0.05801516
-0.09743963	-0.15777126	0.3247718	0.257745	0.28523284	-0.39761677	-0.22741944	0.35172555	-0.08932847	-0.19461428	0.13380295	0.34042218	-0.21310264	0.31599036	-0.40405166	0.338457
-0.15765157	0.054446958	-0.19610645	0.08054885	0.16475211	-0.008255326	-0.2510349	0.09318536	0.169666	0.10261498	-0.049110852	-0.0052771177	-0.12727186	0.07596206	0.027317919	-0.12597165
0.021457983	-0.09388785	0.17711252	0.14225177	0.09970254	-0.14388962	-0.096069574	0.086123645	-0.10030312	-0.20869581	0.17370844	0.1644452	-0.0012895769	0.104215965	-0.23984909	0.22227238
0.5228425	0.6395025	-0.5817515	-0.29166797	-0.6713106	0.6166801	0.65628195	-0.49570698	-0.26823905	0.04916277	0.2462399	-0.46023694	0.53258944	-0.55638343	0.5503328	-0.13127367
0.03258811	0.3360448	-0.4982129	0.3383087	0.1429616	-0.073715284	0.28586033	-0.2759731	-0.06843498	-0.482988	0.10752707	0.6050556	0.2536121	-0.2603712	0.050210465	-0.94461495
-0.271968	-0.24624273	-0.08767979	0.12833239	0.16304153	-0.015361943	-0.12459148	0.12626392	0.16482404	-0.06399997	-0.21573356	0.1843443	-0.16245824	-0.04529552	-0.07752122	-0.36832777
0.4378407	0.3980615	0.052577406	-0.07562625	-0.23975614	0.13215545	0.27602443	-0.20918885	-0.40333915	-0.098485135	0.48241693	-0.11519742	0.3099314	-0.0030270198	0.04270142	0.63915306
0.36022705	0.28234756	-0.15686114	-0.1956679	-0.44474396	0.35817847	0.4654693	-0.285529	-0.21413887	0.05411453	0.18086031	-0.32142982	0.3134396	-0.41426963	0.23793301	0.20706248
-0.09744111	0.044603057	-0.062819526	0.11297333	0.032700576	0.11467718	-0.06864657	0.20495519	0.105643645	0.005159225	-0.030517716	0.031803362	-0.13302343	-0.01176799	0.06303968	0.12096207
-0.2581669	0.16384241	-0.89920425	-0.69603	-0.8756827	0.88990635	-0.022181643	0.22579417	0.53439116	0.93941706	-0.67589426	-0.9607244	-0.34025097	-0.6676103	0.8824797	0.011477797
-0.13222583	0.32588416	0.3170864	0.52072066	0.49680066	-0.42700145	-0.3905983	0.38295722	-0.19546579	-0.41374385	0.5572331	0.43769082	-0.30573568	0.45889425	-0.5065751	0.6585373
-0.26081043	-0.17416549	0.12609568	0.28795785	0.34922072	-0.2529724	-0.347449	0.29378697	0.18914029	-0.05867288	-0.042948514	0.2499479	-0.2968048	0.25667983	-0.34230515	-0.11840089
0.08505818	0.41913915	-0.33722773	0.154896	-0.06143277	0.24366646	0.051349256	-0.07100209	-0.07615771	0.0031662798	0.20733693	-0.020434039	0.0075985296	0.06324333	0.17391314	0.23192126
0.36666346	0.4185011	-0.46105203	-0.53789836	-0.6451002	0.5494744	0.68914235	-0.5974783	-0.18746838	-0.089170866	0.11371066	-0.44067308	0.5419475	-0.80727863	0.48023513	-0.49863428
-0.4973994	0.3431523	-0.36182448	0.52164304	0.5194156	-0.073908165	-0.6238311	0.49876	0.45634016	0.22545624	-0.018772576	0.19547957	-0.5230821	0.47450063	0.016424011	0.18060842
